{"learner":{"attributes":{"scikit_learn":"{\"_estimator_type\": \"classifier\"}"},"feature_names":[],"feature_types":[],"gradient_booster":{"model":{"cats":{"enc":[],"feature_segments":[],"sorted_idx":[]},"gbtree_model_param":{"num_parallel_tree":"1","num_trees":"400"},"iteration_indptr":[0,4,8,12,16,20,24,28,32,36,40,44,48,52,56,60,64,68,72,76,80,84,88,92,96,100,104,108,112,116,120,124,128,132,136,140,144,148,152,156,160,164,168,172,176,180,184,188,192,196,200,204,208,212,216,220,224,228,232,236,240,244,248,252,256,260,264,268,272,276,280,284,288,292,296,300,304,308,312,316,320,324,328,332,336,340,344,348,352,356,360,364,368,372,376,380,384,388,392,396,400],"tree_info":[0,1,2,3,0,1,2,3,0,1,2,3,0,1,2,3,0,1,2,3,0,1,2,3,0,1,2,3,0,1,2,3,0,1,2,3,0,1,2,3,0,1,2,3,0,1,2,3,0,1,2,3,0,1,2,3,0,1,2,3,0,1,2,3,0,1,2,3,0,1,2,3,0,1,2,3,0,1,2,3,0,1,2,3,0,1,2,3,0,1,2,3,0,1,2,3,0,1,2,3,0,1,2,3,0,1,2,3,0,1,2,3,0,1,2,3,0,1,2,3,0,1,2,3,0,1,2,3,0,1,2,3,0,1,2,3,0,1,2,3,0,1,2,3,0,1,2,3,0,1,2,3,0,1,2,3,0,1,2,3,0,1,2,3,0,1,2,3,0,1,2,3,0,1,2,3,0,1,2,3,0,1,2,3,0,1,2,3,0,1,2,3,0,1,2,3,0,1,2,3,0,1,2,3,0,1,2,3,0,1,2,3,0,1,2,3,0,1,2,3,0,1,2,3,0,1,2,3,0,1,2,3,0,1,2,3,0,1,2,3,0,1,2,3,0,1,2,3,0,1,2,3,0,1,2,3,0,1,2,3,0,1,2,3,0,1,2,3,0,1,2,3,0,1,2,3,0,1,2,3,0,1,2,3,0,1,2,3,0,1,2,3,0,1,2,3,0,1,2,3,0,1,2,3,0,1,2,3,0,1,2,3,0,1,2,3,0,1,2,3,0,1,2,3,0,1,2,3,0,1,2,3,0,1,2,3,0,1,2,3,0,1,2,3,0,1,2,3,0,1,2,3,0,1,2,3,0,1,2,3,0,1,2,3,0,1,2,3,0,1,2,3,0,1,2,3,0,1,2,3,0,1,2,3,0,1,2,3,0,1,2,3,0,1,2,3,0,1,2,3],"trees":[{"base_weights":[-2.8560302E-7,-8.957154E-2,1.1090174E0,3.1708598E-2,-3.7803754E-1,5.9458077E-1,1.3274971E0,2.9295233E-1,-1.07543774E-1,-2.6162252E-1,-5.7429093E-1,2.900452E-1,9.032162E-1,7.8505754E-1,1.4601586E0,3.8805965E-1,-2.276476E-2,-2.0657307E-1,8.4709704E-2,-3.091357E-1,1.29397595E-2,-4.8611367E-1,-6.3086367E-1,6.1519733E-3,5.9266627E-1,1.0969658E0,4.5620933E-1,1.0211352E0,2.3147005E-1,1.5010751E0,6.170076E-1,9.432014E-3,4.8631155E-1,-6.7151025E-2,1.139172E0,-2.582964E-1,1.6035644E-2,1.047862E-2,5.372833E-1,-3.8048124E-1,-1.8291333E-1,1.4634967E-1,-2.4300554E-1,-4.9168912E-1,1.2692316E0,-5.214847E-1,-6.44654E-1,8.121693E-1,-6.0869526E-2,8.478786E-2,8.547973E-1,1.2469571E0,5.120829E-1,-1.4539318E-1,7.009459E-1,3.9781016E-1,1.2099918E0,1.04645185E-1,1.4714338E0,1.5980425E0,1.1134722E0,3.6230403E-1,1.5005729E0,4.440079E-2,-1.2044855E-1,1.8168755E-1,6.5198414E-2,2.5062041E-2,-6.897432E-2,3.000164E-2,4.307918E-1,-8.991243E-2,-3.886577E-3,-3.2933254E-2,5.4716434E-2,-2.6683467E-2,5.7400867E-2,1.10269934E-1,2.9976243E-1,-1.2625729E-1,-7.432396E-2,-8.275614E-2,-3.0538326E-3,1.3060382E-1,-1.5673151E-3,3.6520658E-3,-9.8825574E-2,-1.5107135E-1,2.788545E-2,4.896186E-1,-1.0092993E-1,-1.586785E-1,3.0206698E-1,-1.9609345E-1,-1.6614182E-1,5.312776E-1,4.96713E-2,-6.98462E-2,7.769829E-2,2.7221408E-1,-2.2599716E-2,9.83616E-2,3.5069078E-1,3.09453E-1,5.178847E-1,4.1642454E-2,3.2894787E-1,-1.0672593E-1,1.436185E-1,2.9918858E-1,1.7712979E-3,-4.000038E-3,2.557065E-1,2.7278978E-1,4.7739366E-1,1.1035114E-2,4.9683458E-1,5.490333E-1,-7.761369E-2,4.9299455E-1,2.9614052E-1,3.6057392E-1,8.143432E-2,3.6418274E-1,3.2789573E-2,5.209319E-1,-1.3540988E-1],"categories":[],"categories_nodes":[],"categories_segments":[],"categories_sizes":[],"default_left":[0,0,0,0,0,0,0,0,0,0,0,0,0,0,0,0,0,0,0,0,0,0,0,0,0,0,0,0,0,0,0,0,0,0,0,0,0,0,0,0,0,0,0,0,0,0,0,0,0,0,0,0,0,0,0,0,0,0,0,0,0,0,0,0,0,0,0,0,0,0,0,0,0,0,0,0,0,0,0,0,0,0,0,0,0,0,0,0,0,0,0,0,0,0,0,0,0,0,0,0,0,0,0,0,0,0,0,0,0,0,0,0,0,0,0,0,0,0,0,0,0,0,0,0,0,0,0],"id":0,"left_children":[1,3,5,7,9,11,13,15,17,19,21,23,25,27,29,31,33,35,37,39,41,43,45,47,49,51,53,55,57,59,61,63,65,67,69,71,73,75,77,79,81,83,85,87,89,91,93,95,97,99,101,103,105,107,109,111,113,115,117,119,121,123,125,-1,-1,-1,-1,-1,-1,-1,-1,-1,-1,-1,-1,-1,-1,-1,-1,-1,-1,-1,-1,-1,-1,-1,-1,-1,-1,-1,-1,-1,-1,-1,-1,-1,-1,-1,-1,-1,-1,-1,-1,-1,-1,-1,-1,-1,-1,-1,-1,-1,-1,-1,-1,-1,-1,-1,-1,-1,-1,-1,-1,-1,-1,-1,-1],"loss_changes":[4.851366E3,1.5809303E3,4.094131E2,1.1573848E3,3.0543262E2,1.02165955E2,1.8313916E2,3.3216656E2,3.9512775E2,1.0954736E2,2.4531494E1,4.7248066E1,4.6334106E1,6.5813965E1,7.0021484E1,3.1624524E2,1.3220036E2,1.5772083E2,2.3704869E2,6.439465E1,4.2366596E1,1.9711975E1,4.2338867E0,1.5434036E1,3.5368126E1,3.239438E1,2.4429047E1,4.1192627E1,2.381007E1,7.1910645E1,2.1258419E1,9.985194E1,2.1648645E2,6.0564407E1,2.894625E1,1.1292639E2,5.409203E1,1.0903831E2,7.757919E1,2.4401062E1,4.152819E1,3.5727463E1,9.379076E0,1.3557495E1,4.3093576E0,4.451355E0,1.8321533E0,1.3303491E1,1.4572809E1,1.2151047E1,2.866568E1,2.9095825E1,1.6983248E1,6.551955E0,2.4220974E1,1.5673698E1,2.9649292E1,1.4607724E1,9.200741E0,4.168921E1,2.913684E1,1.6354656E1,1.0617607E1,0E0,0E0,0E0,0E0,0E0,0E0,0E0,0E0,0E0,0E0,0E0,0E0,0E0,0E0,0E0,0E0,0E0,0E0,0E0,0E0,0E0,0E0,0E0,0E0,0E0,0E0,0E0,0E0,0E0,0E0,0E0,0E0,0E0,0E0,0E0,0E0,0E0,0E0,0E0,0E0,0E0,0E0,0E0,0E0,0E0,0E0,0E0,0E0,0E0,0E0,0E0,0E0,0E0,0E0,0E0,0E0,0E0,0E0,0E0,0E0,0E0,0E0,0E0,0E0],"parents":[2147483647,0,0,1,1,2,2,3,3,4,4,5,5,6,6,7,7,8,8,9,9,10,10,11,11,12,12,13,13,14,14,15,15,16,16,17,17,18,18,19,19,20,20,21,21,22,22,23,23,24,24,25,25,26,26,27,27,28,28,29,29,30,30,31,31,32,32,33,33,34,34,35,35,36,36,37,37,38,38,39,39,40,40,41,41,42,42,43,43,44,44,45,45,46,46,47,47,48,48,49,49,50,50,51,51,52,52,53,53,54,54,55,55,56,56,57,57,58,58,59,59,60,60,61,61,62,62],"right_children":[2,4,6,8,10,12,14,16,18,20,22,24,26,28,30,32,34,36,38,40,42,44,46,48,50,52,54,56,58,60,62,64,66,68,70,72,74,76,78,80,82,84,86,88,90,92,94,96,98,100,102,104,106,108,110,112,114,116,118,120,122,124,126,-1,-1,-1,-1,-1,-1,-1,-1,-1,-1,-1,-1,-1,-1,-1,-1,-1,-1,-1,-1,-1,-1,-1,-1,-1,-1,-1,-1,-1,-1,-1,-1,-1,-1,-1,-1,-1,-1,-1,-1,-1,-1,-1,-1,-1,-1,-1,-1,-1,-1,-1,-1,-1,-1,-1,-1,-1,-1,-1,-1,-1,-1,-1,-1],"split_conditions":[6.933159E-1,4.3931857E-1,1.2946657E0,3.392848E0,1.956673E0,5.046141E-1,3.912168E0,2.0261505E-1,2.2695477E0,4.6231756E-1,1.748281E0,5.407202E-1,2.9566312E-1,8.3965427E-1,8.122991E-1,1.4399335E-1,6.547187E-1,5.5163693E-1,5.785308E-1,4.5012828E-2,1.9164938E0,2.521286E0,3.949089E-1,2.8619962E-3,2.694317E-1,9.956294E-2,3.5053003E-1,3.2915646E-1,1.0033032E0,1.7745152E0,1.8402785E-1,2.137794E0,6.433469E-1,3.0680606E0,2.4298746E-4,4.6563914E-1,3.214152E-2,6.811063E-3,1.8190797E-1,2.0856595E-1,2.1854393E0,1.3513279E0,3.3172433E0,7.2436744E-1,3.5783753E-1,1.9519705E0,1.5440372E0,7.100694E-3,5.960833E-1,8.271641E-2,1.1708834E-3,2.3297425E-1,4.485575E0,1.4661821E-2,8.485734E-1,5.373065E-1,1.1074746E-1,1.2952898E0,2.400331E0,2.6724824E-1,4.8300782E-1,1.217301E-2,2.8125017E0,4.440079E-2,-1.2044855E-1,1.8168755E-1,6.5198414E-2,2.5062041E-2,-6.897432E-2,3.000164E-2,4.307918E-1,-8.991243E-2,-3.886577E-3,-3.2933254E-2,5.4716434E-2,-2.6683467E-2,5.7400867E-2,1.10269934E-1,2.9976243E-1,-1.2625729E-1,-7.432396E-2,-8.275614E-2,-3.0538326E-3,1.3060382E-1,-1.5673151E-3,3.6520658E-3,-9.8825574E-2,-1.5107135E-1,2.788545E-2,4.896186E-1,-1.0092993E-1,-1.586785E-1,3.0206698E-1,-1.9609345E-1,-1.6614182E-1,5.312776E-1,4.96713E-2,-6.98462E-2,7.769829E-2,2.7221408E-1,-2.2599716E-2,9.83616E-2,3.5069078E-1,3.09453E-1,5.178847E-1,4.1642454E-2,3.2894787E-1,-1.0672593E-1,1.436185E-1,2.9918858E-1,1.7712979E-3,-4.000038E-3,2.557065E-1,2.7278978E-1,4.7739366E-1,1.1035114E-2,4.9683458E-1,5.490333E-1,-7.761369E-2,4.9299455E-1,2.9614052E-1,3.6057392E-1,8.143432E-2,3.6418274E-1,3.2789573E-2,5.209319E-1,-1.3540988E-1],"split_indices":[313,1268,1519,435,1187,1287,2002,445,1094,1713,1393,1519,1032,1856,1032,1052,227,1928,403,120,554,1519,233,1042,1669,875,926,1669,334,249,442,625,810,1432,300,316,1081,1844,724,441,1094,430,435,1713,769,1178,101,1905,1052,1549,13,1483,2002,45,180,1200,755,681,1035,1805,1921,1497,1594,0,0,0,0,0,0,0,0,0,0,0,0,0,0,0,0,0,0,0,0,0,0,0,0,0,0,0,0,0,0,0,0,0,0,0,0,0,0,0,0,0,0,0,0,0,0,0,0,0,0,0,0,0,0,0,0,0,0,0,0,0,0,0,0],"split_type":[0,0,0,0,0,0,0,0,0,0,0,0,0,0,0,0,0,0,0,0,0,0,0,0,0,0,0,0,0,0,0,0,0,0,0,0,0,0,0,0,0,0,0,0,0,0,0,0,0,0,0,0,0,0,0,0,0,0,0,0,0,0,0,0,0,0,0,0,0,0,0,0,0,0,0,0,0,0,0,0,0,0,0,0,0,0,0,0,0,0,0,0,0,0,0,0,0,0,0,0,0,0,0,0,0,0,0,0,0,0,0,0,0,0,0,0,0,0,0,0,0,0,0,0,0,0,0],"sum_hessian":[4.883589E4,4.5187207E4,3.6486846E3,3.181294E4,1.3374267E4,1.0887693E3,2.5599153E3,1.1060966E4,2.0751975E4,8.396124E3,4.978142E3,5.490009E2,5.397684E2,5.0439835E2,2.0555168E3,8.500137E3,2.5608296E3,1.3696741E4,7.0552324E3,7.1574043E3,1.23872E3,1.9493608E3,3.0287815E3,2.837919E2,2.65209E2,3.755408E2,1.6422755E2,3.5301175E2,1.5138661E2,1.959639E3,9.58778E1,1.751516E3,6.74862E3,2.4675122E3,9.331736E1,1.1114189E4,2.582552E3,6.061971E3,9.9326086E2,4.5714424E3,2.5859622E3,8.145625E2,4.2415747E2,1.9439062E3,5.454482E0,3.4345453E2,2.685327E3,2.0932644E1,2.6285925E2,9.073451E1,1.7447449E2,2.9799023E2,7.755055E1,4.7607204E1,1.1662036E2,8.280815E1,2.7020358E2,1.3832317E2,1.3063452E1,1.5649977E3,3.9464142E2,7.551833E1,2.035947E1,1.3103027E3,4.4121332E2,4.674078E3,2.0745422E3,1.2815251E3,1.185987E3,2.1028559E1,7.22888E1,9.508933E3,1.6052566E3,1.4706401E3,1.1119119E3,3.9119495E3,2.150022E3,7.276932E2,2.6556775E2,3.503537E3,1.0679052E3,1.6809309E3,9.050313E2,2.7959833E2,5.349642E2,1.07517044E2,3.166404E2,1.9053219E3,3.8584454E1,4.4357095E0,1.0187727E0,3.4244064E2,1.0138764E0,2.4378674E3,2.4745956E2,7.730808E0,1.3201836E1,1.711339E2,9.1725365E1,1.4023603E1,7.671091E1,6.593416E1,1.0854033E2,2.0775885E2,9.023139E1,4.8079018E1,2.9471535E1,3.5927757E1,1.1679445E1,8.1454994E1,3.516536E1,4.398953E1,3.8818626E1,1.5296594E2,1.1723765E2,1.3350725E2,4.815913E0,1.0772437E1,2.2910147E0,1.4554485E3,1.09549164E2,3.5674393E2,3.789748E1,1.6426664E1,5.9091667E1,1.8263023E1,2.096447E0],"tree_param":{"num_deleted":"0","num_feature":"2048","num_nodes":"127","size_leaf_vector":"1"}},{"base_weights":[-1.5867042E-7,-3.7224087E-1,1.4875998E-1,-5.1554155E-1,-1.3281444E-1,5.8262054E-2,4.4692987E-1,-5.854144E-1,-3.3775294E-1,-4.2622185E-1,-1.01769455E-2,-7.937211E-2,1.9145721E-1,1.3570695E-1,5.42748E-1,-5.8749723E-1,1.1444713E0,-3.7925115E-1,3.2213107E-1,-4.3844604E-1,9.593345E-1,-9.582058E-2,4.2607042E-1,-1.22054346E-1,2.4337727E-1,6.078708E-2,3.766657E-1,-1.8768743E-1,2.800721E-1,5.832707E-1,-3.2992128E-1,-5.907508E-1,4.9604332E-1,5.015402E-1,-1.2790933E-1,-4.595489E-1,-1.4029393E-1,-4.4263712E-1,7.2970957E-1,-4.920959E-1,-2.1220554E-1,-1.5411684E-1,1.4836018E0,-2.4476029E-2,-4.836223E-1,1.2755747E-1,6.120963E-1,-7.26708E-2,-3.0193785E-1,-3.7850436E-2,4.553922E-1,3.227491E-2,7.499818E-1,3.1705233E-1,7.8768057E-1,-2.2274064E-1,1.1279192E0,5.2780136E-2,4.5808384E-1,3.4970474E-1,6.940528E-1,3.1407565E-1,-4.72017E-1,-1.7831106E-1,7.880776E-2,-1.8114744E-1,4.9587458E-1,-1.4259996E-1,1.528333E-1,5.4330107E-2,-1.0503208E-1,-1.6289322E-1,3.78342E-1,-4.9573723E-2,3.5970792E-1,-1.5530142E-1,-3.663664E-2,1.2766896E-1,-9.373315E-2,-1.00689046E-1,5.1463145E-1,2.3287889E-2,-1.2036191E-1,-1.6581118E-1,-1.8542573E-2,1.5367632E-1,-4.73462E-2,2.7377928E-2,2.278909E-1,-8.356922E-2,-9.38009E-3,-1.2417615E-1,-3.693168E-2,-1.06091924E-1,3.270963E-2,1.6109157E-1,-1.2255082E-1,-3.336229E-2,4.236709E-2,1.2048739E-2,3.4664378E-1,1.2978789E-1,3.606925E-2,1.8874975E-1,4.0315259E-1,-3.300495E-2,-1.6993588E-1,-1.5357849E-1,4.8435107E-1,-1.0933483E-1,5.0996576E-2,1.5430926E-1,-1.3886483E-1,6.876129E-2,2.2850268E-1,1.7435014E-1,3.2247478E-1,3.4178877E-1,-1.3247836E-1,-1.7380255E-1,4.971192E-2],"categories":[],"categories_nodes":[],"categories_segments":[],"categories_sizes":[],"default_left":[0,0,0,0,0,0,0,0,0,0,0,0,0,0,0,0,0,0,0,0,0,0,0,0,0,0,0,0,0,0,0,0,0,0,0,0,0,0,0,0,0,0,0,0,0,0,0,0,0,0,0,0,0,0,0,0,0,0,0,0,0,0,0,0,0,0,0,0,0,0,0,0,0,0,0,0,0,0,0,0,0,0,0,0,0,0,0,0,0,0,0,0,0,0,0,0,0,0,0,0,0,0,0,0,0,0,0,0,0,0,0,0,0,0,0,0,0,0,0,0,0],"id":1,"left_children":[1,3,5,7,9,11,13,15,17,19,21,23,25,27,29,31,33,35,37,39,41,43,45,47,49,51,53,55,57,59,61,63,65,-1,-1,67,69,71,73,75,77,-1,79,81,83,85,87,89,91,93,95,97,99,101,103,105,107,109,111,113,115,117,119,-1,-1,-1,-1,-1,-1,-1,-1,-1,-1,-1,-1,-1,-1,-1,-1,-1,-1,-1,-1,-1,-1,-1,-1,-1,-1,-1,-1,-1,-1,-1,-1,-1,-1,-1,-1,-1,-1,-1,-1,-1,-1,-1,-1,-1,-1,-1,-1,-1,-1,-1,-1,-1,-1,-1,-1,-1,-1],"loss_changes":[2.704377E3,4.7836914E2,9.4152655E2,1.0816553E2,1.879145E2,4.9076578E2,2.4220386E2,2.322998E1,6.758035E1,2.6493958E1,1.376843E2,1.8140363E2,3.2922525E2,8.9403915E1,2.1985352E2,2.2340088E1,7.230356E0,4.441504E1,4.5922653E1,1.8425385E1,1.1401357E1,8.521304E1,3.3504295E1,1.03282745E2,9.17284E1,1.5674614E2,1.3763892E2,2.751839E1,5.352841E1,1.533595E2,2.5430239E1,1.941748E1,2.5511934E1,0E0,0E0,2.6773224E1,3.9476772E1,9.486064E0,4.0439857E1,1.1606049E1,1.895262E1,0E0,4.969486E0,1.00145515E2,1.3911537E1,2.5708895E1,2.854039E1,7.778447E1,5.0105667E1,3.0748365E1,6.20318E1,1.1979089E2,9.116495E1,1.1178549E2,6.1939056E1,2.2284071E1,1.3202272E1,2.854545E1,3.8703964E1,9.473358E1,1.72448E2,3.2020214E1,1.5614693E1,0E0,0E0,0E0,0E0,0E0,0E0,0E0,0E0,0E0,0E0,0E0,0E0,0E0,0E0,0E0,0E0,0E0,0E0,0E0,0E0,0E0,0E0,0E0,0E0,0E0,0E0,0E0,0E0,0E0,0E0,0E0,0E0,0E0,0E0,0E0,0E0,0E0,0E0,0E0,0E0,0E0,0E0,0E0,0E0,0E0,0E0,0E0,0E0,0E0,0E0,0E0,0E0,0E0,0E0,0E0,0E0,0E0,0E0],"parents":[2147483647,0,0,1,1,2,2,3,3,4,4,5,5,6,6,7,7,8,8,9,9,10,10,11,11,12,12,13,13,14,14,15,15,16,16,17,17,18,18,19,19,20,20,21,21,22,22,23,23,24,24,25,25,26,26,27,27,28,28,29,29,30,30,31,31,32,32,35,35,36,36,37,37,38,38,39,39,40,40,42,42,43,43,44,44,45,45,46,46,47,47,48,48,49,49,50,50,51,51,52,52,53,53,54,54,55,55,56,56,57,57,58,58,59,59,60,60,61,61,62,62],"right_children":[2,4,6,8,10,12,14,16,18,20,22,24,26,28,30,32,34,36,38,40,42,44,46,48,50,52,54,56,58,60,62,64,66,-1,-1,68,70,72,74,76,78,-1,80,82,84,86,88,90,92,94,96,98,100,102,104,106,108,110,112,114,116,118,120,-1,-1,-1,-1,-1,-1,-1,-1,-1,-1,-1,-1,-1,-1,-1,-1,-1,-1,-1,-1,-1,-1,-1,-1,-1,-1,-1,-1,-1,-1,-1,-1,-1,-1,-1,-1,-1,-1,-1,-1,-1,-1,-1,-1,-1,-1,-1,-1,-1,-1,-1,-1,-1,-1,-1,-1,-1,-1],"split_conditions":[2.8996406E0,1.9496197E-2,5.162682E-1,2.1188033E0,4.0544233E-1,4.9179616E0,2.4934874E-1,1.8440418E0,3.8874512E0,1.6703154E0,2.9487965E0,2.590132E-1,1.4479706E-1,3.7476245E-1,2.4135442E0,3.068239E0,7.307678E-2,9.357592E-1,5.600508E-1,3.8683075E-1,2.4294E-3,1.0612003E0,9.080387E-2,9.835843E-2,2.75746E-1,1.3324052E0,1.3522034E0,9.488923E0,5.399302E0,3.6990526E0,1.1350381E-2,1.210043E0,1.5770603E0,5.015402E-1,-1.2790933E-1,7.311145E0,4.474533E-4,5.5187505E-1,1.973591E-2,1.8076003E0,1.6416943E-3,-1.5411684E-1,9.559707E-3,7.793368E-1,8.06735E-2,1.7587214E0,1.0692828E-1,3.157901E-1,5.071134E0,4.6259847E-2,6.3313884E-1,5.410713E-1,1.5553396E0,4.2479485E-1,2.3977766E0,5.6369174E-1,9.273221E-2,1.866773E-2,1.9913828E0,4.2450368E-1,1.2715576E0,2.1750854E-2,3.232207E-1,-1.7831106E-1,7.880776E-2,-1.8114744E-1,4.9587458E-1,-1.4259996E-1,1.528333E-1,5.4330107E-2,-1.0503208E-1,-1.6289322E-1,3.78342E-1,-4.9573723E-2,3.5970792E-1,-1.5530142E-1,-3.663664E-2,1.2766896E-1,-9.373315E-2,-1.00689046E-1,5.1463145E-1,2.3287889E-2,-1.2036191E-1,-1.6581118E-1,-1.8542573E-2,1.5367632E-1,-4.73462E-2,2.7377928E-2,2.278909E-1,-8.356922E-2,-9.38009E-3,-1.2417615E-1,-3.693168E-2,-1.06091924E-1,3.270963E-2,1.6109157E-1,-1.2255082E-1,-3.336229E-2,4.236709E-2,1.2048739E-2,3.4664378E-1,1.2978789E-1,3.606925E-2,1.8874975E-1,4.0315259E-1,-3.300495E-2,-1.6993588E-1,-1.5357849E-1,4.8435107E-1,-1.0933483E-1,5.0996576E-2,1.5430926E-1,-1.3886483E-1,6.876129E-2,2.2850268E-1,1.7435014E-1,3.2247478E-1,3.4178877E-1,-1.3247836E-1,-1.7380255E-1,4.971192E-2],"split_indices":[53,2037,186,53,462,435,1455,899,734,1450,1594,773,1974,430,1393,168,540,758,959,513,386,614,2035,227,1125,1280,885,856,53,435,992,370,1133,0,0,1946,1903,70,477,611,201,0,1662,227,199,1413,1164,1041,53,1263,313,1164,856,124,810,1992,1535,1033,1864,708,466,1332,440,0,0,0,0,0,0,0,0,0,0,0,0,0,0,0,0,0,0,0,0,0,0,0,0,0,0,0,0,0,0,0,0,0,0,0,0,0,0,0,0,0,0,0,0,0,0,0,0,0,0,0,0,0,0,0,0,0,0],"split_type":[0,0,0,0,0,0,0,0,0,0,0,0,0,0,0,0,0,0,0,0,0,0,0,0,0,0,0,0,0,0,0,0,0,0,0,0,0,0,0,0,0,0,0,0,0,0,0,0,0,0,0,0,0,0,0,0,0,0,0,0,0,0,0,0,0,0,0,0,0,0,0,0,0,0,0,0,0,0,0,0,0,0,0,0,0,0,0,0,0,0,0,0,0,0,0,0,0,0,0,0,0,0,0,0,0,0,0,0,0,0,0,0,0,0,0,0,0,0,0,0,0],"sum_hessian":[4.8835883E4,1.3943564E4,3.4892316E4,8.722094E3,5.2214707E3,2.6768863E4,8.1234556E3,6.2596787E3,2.462415E3,1.5384026E3,3.6830684E3,1.3165254E4,1.3603608E4,1.9128429E3,6.210613E3,6.2528105E3,6.8681464E0,2.317123E3,1.4529196E2,1.5256261E3,1.2776422E1,3.0793198E3,6.0374854E2,1.1628107E4,1.5371462E3,7.976956E3,5.626653E3,5.9027026E2,1.3225726E3,5.9353345E3,2.7527805E2,6.2345444E3,1.8265747E1,5.093863E0,1.7742834E0,1.7336387E3,5.834845E2,5.0482357E1,9.480961E1,1.2322418E3,2.9338434E2,3.3588955E0,9.417526E0,2.6017368E3,4.775829E2,2.3244046E2,3.7130807E2,9.124544E3,2.5035637E3,6.610786E2,8.760677E2,7.6610625E3,3.1589337E2,4.915485E3,7.111679E2,5.757603E2,1.4509947E1,5.81451E2,7.4112164E2,1.9108267E3,4.0245078E3,4.9541046E1,2.25737E2,6.208518E3,2.6026367E1,9.608629E0,8.657119E0,1.7063527E3,2.7285923E1,2.3051521E2,3.5296933E2,4.8318077E1,2.1642797E0,3.2837887E1,6.197172E1,1.1521937E3,8.004807E1,3.940751E1,2.5397684E2,1.0138762E0,8.40365E0,2.0475886E3,5.541483E2,4.1010806E2,6.747484E1,9.865544E1,1.3378502E2,8.232124E1,2.8898685E2,1.5267222E3,7.597822E3,1.5387205E3,9.6484326E2,2.0942305E2,4.5165555E2,8.008226E2,7.524515E1,3.306487E3,4.3545757E3,1.1524939E2,2.0064398E2,3.096195E3,1.8192897E3,5.550898E2,1.5607814E2,4.3456134E2,1.4119897E2,3.3083448E0,1.1201602E1,1.2705631E2,4.5439468E2,6.9885596E2,4.226564E1,1.4796028E3,4.3122385E2,3.1063333E3,9.181747E2,2.3438099E1,2.6102947E1,1.9329776E2,3.2439247E1],"tree_param":{"num_deleted":"0","num_feature":"2048","num_nodes":"121","size_leaf_vector":"1"}},{"base_weights":[2.0568477E-7,-2.4569792E-1,3.038003E-1,-3.9274663E-1,-4.7567416E-2,7.947299E-2,6.560927E-1,-5.13235E-1,-2.9981333E-1,-1.0018559E-1,3.2515404E-1,-1.1395099E-1,2.0340005E-1,1.2437577E-1,7.8346306E-1,-5.412467E-1,-1.12126306E-1,-1.13789685E-1,-3.676539E-1,-4.81246E-2,-2.8700724E-1,5.531406E-1,4.6525158E-2,-1.469677E-1,9.529262E-1,-1.8109265E-1,2.8522798E-1,2.501257E-1,-3.5411048E-1,9.291602E-1,3.4618998E-1,-5.767998E-1,-3.425647E-1,-1.513076E-1,1.2999446E0,-2.0195213E-1,3.605918E-1,-4.273797E-1,-2.348284E-1,-9.18773E-2,2.2166085E-1,-3.312206E-1,1.3660483E-1,2.5911012E-1,7.948203E-1,2.0063262E-1,-2.1062087E-1,-2.3147355E-1,2.1882154E-2,1.1759495E0,-5.5568535E-2,5.824374E-2,-3.5002607E-1,4.650631E-1,8.438098E-2,7.606428E-2,5.745531E-1,-4.6899575E-1,1.554841E-1,3.2262522E-1,1.0251342E0,5.18075E-1,1.3007909E-2,-1.774253E-1,-8.6757615E-2,-1.31554E-1,5.842739E-3,-8.826372E-2,5.5590935E-2,5.3763914E-1,-1.4131378E-1,-7.568021E-2,1.070067E-1,4.825888E-2,3.1413186E-1,-1.295631E-1,2.994336E-1,-7.8173414E-2,2.2116075E-1,-4.1527927E-2,3.9422452E-2,-7.5556786E-4,1.6160196E-1,-6.497923E-2,-1.3657479E-1,-1.1814239E-2,2.7226236E-1,3.182241E-2,2.3611556E-1,3.0333307E-1,9.5003806E-2,4.6109654E-2,4.7602168E-1,7.355261E-2,-1.1510907E-1,-9.637401E-2,-2.400289E-2,-7.99581E-3,2.0471014E-1,4.015853E-1,1.2915515E-2,-1.531091E-1,3.8919345E-1,-1.903539E-2,2.1782328E-1,-1.2214701E-1,1.1763341E-1,2.0339108E-1,8.74275E-2,4.328543E-2,-1.2365755E-1,5.889964E-3,3.2983997E-1,1.2657991E-1,3.3133674E-1,-1.5975165E-1,1.3548212E-1,-3.339656E-2,4.0243196E-1,-7.0037885E-4,2.0089214E-1,3.377412E-1,2.1524243E-1,2.1853475E-1,8.238301E-2,-2.8921392E-2,1.448052E-1],"categories":[],"categories_nodes":[],"categories_segments":[],"categories_sizes":[],"default_left":[0,0,0,0,0,0,0,0,0,0,0,0,0,0,0,0,0,0,0,0,0,0,0,0,0,0,0,0,0,0,0,0,0,0,0,0,0,0,0,0,0,0,0,0,0,0,0,0,0,0,0,0,0,0,0,0,0,0,0,0,0,0,0,0,0,0,0,0,0,0,0,0,0,0,0,0,0,0,0,0,0,0,0,0,0,0,0,0,0,0,0,0,0,0,0,0,0,0,0,0,0,0,0,0,0,0,0,0,0,0,0,0,0,0,0,0,0,0,0,0,0,0,0,0,0,0,0],"id":2,"left_children":[1,3,5,7,9,11,13,15,17,19,21,23,25,27,29,31,33,35,37,39,41,43,45,47,49,51,53,55,57,59,61,63,65,67,69,71,73,75,77,79,81,83,85,87,89,91,93,95,97,99,101,103,105,107,109,111,113,115,117,119,121,123,125,-1,-1,-1,-1,-1,-1,-1,-1,-1,-1,-1,-1,-1,-1,-1,-1,-1,-1,-1,-1,-1,-1,-1,-1,-1,-1,-1,-1,-1,-1,-1,-1,-1,-1,-1,-1,-1,-1,-1,-1,-1,-1,-1,-1,-1,-1,-1,-1,-1,-1,-1,-1,-1,-1,-1,-1,-1,-1,-1,-1,-1,-1,-1,-1],"loss_changes":[3.6454102E3,7.866482E2,1.7256967E3,1.7338574E2,2.2564238E2,3.198534E2,5.752456E2,7.5749146E1,1.1040796E2,9.803875E1,9.039021E1,1.8369696E2,2.5592337E2,9.8942726E1,4.3630176E2,4.435022E1,2.4634422E1,9.794864E1,5.0772583E1,9.309932E1,4.119139E1,5.541507E1,2.5468582E1,7.214042E1,3.5278107E1,5.7744854E1,2.4217584E2,7.345777E1,2.011457E1,2.9887402E2,9.8175186E1,2.2312134E1,3.3345505E1,2.0771105E1,1.1329634E1,5.5579193E1,5.0170795E1,2.8782349E1,5.0033997E1,7.054816E1,7.822356E1,2.8185974E1,2.8300877E1,2.8565918E1,4.4058228E1,2.5888948E1,1.9099699E1,4.5788208E1,5.4102177E1,2.3577362E1,1.8694206E1,4.812724E1,3.565114E1,1.3059167E2,9.4330414E1,4.896681E1,3.6277878E1,1.6587952E1,2.0314533E1,7.935053E1,1.3662402E2,5.772461E1,3.0081644E1,0E0,0E0,0E0,0E0,0E0,0E0,0E0,0E0,0E0,0E0,0E0,0E0,0E0,0E0,0E0,0E0,0E0,0E0,0E0,0E0,0E0,0E0,0E0,0E0,0E0,0E0,0E0,0E0,0E0,0E0,0E0,0E0,0E0,0E0,0E0,0E0,0E0,0E0,0E0,0E0,0E0,0E0,0E0,0E0,0E0,0E0,0E0,0E0,0E0,0E0,0E0,0E0,0E0,0E0,0E0,0E0,0E0,0E0,0E0,0E0,0E0,0E0,0E0,0E0],"parents":[2147483647,0,0,1,1,2,2,3,3,4,4,5,5,6,6,7,7,8,8,9,9,10,10,11,11,12,12,13,13,14,14,15,15,16,16,17,17,18,18,19,19,20,20,21,21,22,22,23,23,24,24,25,25,26,26,27,27,28,28,29,29,30,30,31,31,32,32,33,33,34,34,35,35,36,36,37,37,38,38,39,39,40,40,41,41,42,42,43,43,44,44,45,45,46,46,47,47,48,48,49,49,50,50,51,51,52,52,53,53,54,54,55,55,56,56,57,57,58,58,59,59,60,60,61,61,62,62],"right_children":[2,4,6,8,10,12,14,16,18,20,22,24,26,28,30,32,34,36,38,40,42,44,46,48,50,52,54,56,58,60,62,64,66,68,70,72,74,76,78,80,82,84,86,88,90,92,94,96,98,100,102,104,106,108,110,112,114,116,118,120,122,124,126,-1,-1,-1,-1,-1,-1,-1,-1,-1,-1,-1,-1,-1,-1,-1,-1,-1,-1,-1,-1,-1,-1,-1,-1,-1,-1,-1,-1,-1,-1,-1,-1,-1,-1,-1,-1,-1,-1,-1,-1,-1,-1,-1,-1,-1,-1,-1,-1,-1,-1,-1,-1,-1,-1,-1,-1,-1,-1,-1,-1,-1,-1,-1,-1],"split_conditions":[1.7559905E0,2.639183E-2,3.1819332E-1,2.3832216E0,1.2880251E-1,1.9974872E-1,3.9364777E0,2.2306341E-1,1.1017639E1,1.4472377E0,1.2374532E1,7.8617163E0,6.635147E-2,2.2849539E-1,1.1495677E-1,2.1473174E-1,1.4295939E0,6.682475E-1,1.6855111E0,6.4906615E-1,4.5437303E-1,4.2445782E-1,1.5046734E-1,2.7749118E-1,1.14859855E-2,2.3580391E0,4.636684E-1,7.6795536E-1,6.3096946E-1,8.235367E-1,7.868049E-2,5.2254707E-1,7.423426E-1,3.4392455E-1,4.4347145E-2,2.99514E-1,3.7423258E0,1.7613417E0,2.9227597E-1,1.0636702E0,1.8321848E0,1.5696758E-2,9.528714E-1,1.818876E0,1.9251443E-1,2.097034E0,3.8427692E-2,4.154123E0,2.2056052E-1,9.650614E-2,7.112693E-1,1.7542551E-1,1.5927099E-1,2.0658736E-1,5.799203E-1,1.8169649E0,6.015608E-2,1.4055736E0,1.2664666E0,2.949457E-1,1.4015571E0,1.1840956E-1,4.2482346E-2,-1.774253E-1,-8.6757615E-2,-1.31554E-1,5.842739E-3,-8.826372E-2,5.5590935E-2,5.3763914E-1,-1.4131378E-1,-7.568021E-2,1.070067E-1,4.825888E-2,3.1413186E-1,-1.295631E-1,2.994336E-1,-7.8173414E-2,2.2116075E-1,-4.1527927E-2,3.9422452E-2,-7.5556786E-4,1.6160196E-1,-6.497923E-2,-1.3657479E-1,-1.1814239E-2,2.7226236E-1,3.182241E-2,2.3611556E-1,3.0333307E-1,9.5003806E-2,4.6109654E-2,4.7602168E-1,7.355261E-2,-1.1510907E-1,-9.637401E-2,-2.400289E-2,-7.99581E-3,2.0471014E-1,4.015853E-1,1.2915515E-2,-1.531091E-1,3.8919345E-1,-1.903539E-2,2.1782328E-1,-1.2214701E-1,1.1763341E-1,2.0339108E-1,8.74275E-2,4.328543E-2,-1.2365755E-1,5.889964E-3,3.2983997E-1,1.2657991E-1,3.3133674E-1,-1.5975165E-1,1.3548212E-1,-3.339656E-2,4.0243196E-1,-7.0037885E-4,2.0089214E-1,3.377412E-1,2.1524243E-1,2.1853475E-1,8.238301E-2,-2.8921392E-2,1.448052E-1],"split_indices":[207,316,1120,53,122,109,792,907,551,1723,116,469,1052,227,1578,1474,1548,1483,1594,469,1284,329,188,663,996,2045,1605,1988,214,1052,624,208,1225,743,128,769,734,470,1616,1125,625,1434,896,983,1960,779,661,1930,836,1103,1175,374,1401,598,227,969,1810,1342,1239,355,1350,1263,693,0,0,0,0,0,0,0,0,0,0,0,0,0,0,0,0,0,0,0,0,0,0,0,0,0,0,0,0,0,0,0,0,0,0,0,0,0,0,0,0,0,0,0,0,0,0,0,0,0,0,0,0,0,0,0,0,0,0,0,0,0,0,0,0],"split_type":[0,0,0,0,0,0,0,0,0,0,0,0,0,0,0,0,0,0,0,0,0,0,0,0,0,0,0,0,0,0,0,0,0,0,0,0,0,0,0,0,0,0,0,0,0,0,0,0,0,0,0,0,0,0,0,0,0,0,0,0,0,0,0,0,0,0,0,0,0,0,0,0,0,0,0,0,0,0,0,0,0,0,0,0,0,0,0,0,0,0,0,0,0,0,0,0,0,0,0,0,0,0,0,0,0,0,0,0,0,0,0,0,0,0,0,0,0,0,0,0,0,0,0,0,0,0,0],"sum_hessian":[4.8835863E4,2.6999904E4,2.183596E4,1.5497195E4,1.1502708E4,1.3341679E4,8.494283E3,6.7461997E3,8.750995E3,1.0080365E4,1.4223433E3,5.210019E3,8.1316597E3,1.6419247E3,6.852358E3,6.3055015E3,4.4069818E2,2.3392595E3,6.411736E3,7.8844805E3,2.1958848E3,7.817199E2,6.406233E2,5.0544604E3,1.5555838E2,1.4266957E3,6.704964E3,1.3005953E3,3.4132944E2,5.138959E3,1.7133989E3,5.3468135E3,9.5868823E2,4.2966882E2,1.10293455E1,1.9731327E3,3.6612683E2,4.4214067E3,1.9903293E3,6.7848076E3,1.0996727E3,1.9885531E3,2.0733171E2,3.5359906E2,4.2812085E2,4.0070236E2,2.3992093E2,3.368317E3,1.6861438E3,1.2725138E2,2.8307E1,5.906076E2,8.360881E2,3.536829E3,3.1681345E3,8.4725916E2,4.5333612E2,2.7860022E2,6.2729214E1,7.026606E2,4.436299E3,1.129927E3,5.83472E2,5.0871978E3,2.5961563E2,7.5767633E2,2.0101192E2,3.017077E2,1.2796112E2,8.62139E0,2.4079552E0,1.8106051E3,1.6252763E2,2.8457053E2,8.15563E1,4.4081963E3,1.3210326E1,1.939678E3,5.0651257E1,5.614676E3,1.1701318E3,6.447332E2,4.5493945E2,1.0348893E3,9.536639E2,1.6957164E2,3.7760075E1,2.750661E2,7.853298E1,2.9400934E2,1.341115E2,3.8865338E2,1.2048979E1,6.591556E1,1.7400537E2,2.1141392E3,1.2541777E3,1.5716155E3,1.1452842E2,1.1111521E2,1.6136173E1,2.1651285E1,6.6557136E0,5.0033905E2,9.026856E1,7.7674475E2,5.934335E1,1.5874573E3,1.949372E3,2.8277231E3,3.4041135E2,8.039481E2,4.331104E1,3.533594E2,9.9976715E1,2.6101508E2,1.758512E1,5.1948444E1,1.0780773E1,3.633745E2,3.3928607E2,3.340567E3,1.0957317E3,6.0508813E2,5.2483887E2,4.7387582E2,1.0959615E2],"tree_param":{"num_deleted":"0","num_feature":"2048","num_nodes":"127","size_leaf_vector":"1"}},{"base_weights":[1.5407169E-7,-2.9918006E-1,8.1332576E-1,1.7936921E-1,-4.663903E-1,4.291695E-1,1.5170294E0,7.6298666E-1,9.786109E-3,-4.8785576E-1,1.1257565E0,8.6588395E-1,1.02116674E-1,1.7459892E0,9.5617807E-1,1.1308719E0,4.986576E-2,1.347702E-1,-3.709441E-1,-2.5182524E-1,-5.5930954E-1,2.2738332E-1,1.7999439E0,1.2372998E0,3.1937498E-1,2.9938695E-1,-2.1102993E-1,1.9002508E0,1.4229358E0,5.0700563E-1,1.2486895E0,1.265766E0,1.0410036E-1,4.6433854E-1,-3.562035E-1,4.019219E-1,1.3723768E-2,-2.6968334E-2,-4.6189067E-1,-2.9066455E-1,7.969083E-1,-5.664158E-1,6.7586434E-1,9.8750764E-1,-3.1553683E-1,4.53503E-1,1.8723506E0,9.253562E-1,1.5791717E0,7.8438663E-1,1.4398009E-1,4.8632145E-1,-4.2224217E-2,-2.7830872E-1,5.612432E-1,1.9103442E0,4.6661216E-1,1.5375818E0,5.453923E-1,9.248555E-1,2.3194459E-1,9.0113765E-1,1.6115421E0,4.3336302E-1,2.2149189E-1,1.1682952E-1,-1.762508E-1,2.6948565E-1,2.581734E-2,-1.24823466E-1,3.631673E-1,8.946809E-2,2.6634288E-1,9.693911E-2,-2.579387E-2,6.724457E-2,-1.1481582E-1,-1.4745738E-1,5.359167E-2,2.0688202E-2,-1.0842282E-1,3.864409E-1,-6.869807E-3,-1.711831E-1,2.5074235E-1,-7.54646E-2,4.3726173E-1,4.2355418E-1,-1.2742208E-1,-1.695061E-1,1.23749375E-1,4.9315172E-1,-1.7129396E-1,5.7277864E-1,-1.4638239E-1,2.4808176E-1,5.4065406E-1,5.168572E-1,2.7907094E-1,1.7718698E-1,4.5677122E-1,1.1977204E-1,-7.0951395E-2,2.309538E-1,8.27252E-2,-2.1415181E-2,4.059175E-1,-4.8559504E-3,-1.346133E-1,5.1946055E-2,4.1300827E-1,5.775765E-1,2.9829025E-1,4.8071897E-1,-1.7883311E-1,3.9216897E-1,5.3762E-1,6.674816E-2,5.513511E-1,3.5472542E-1,1.2535389E-2,-6.5148085E-2,1.8862812E-1,3.2639116E-1,-4.0332075E-2,5.2638113E-1,3.041848E-1],"categories":[],"categories_nodes":[],"categories_segments":[],"categories_sizes":[],"default_left":[0,0,0,0,0,0,0,0,0,0,0,0,0,0,0,0,0,0,0,0,0,0,0,0,0,0,0,0,0,0,0,0,0,0,0,0,0,0,0,0,0,0,0,0,0,0,0,0,0,0,0,0,0,0,0,0,0,0,0,0,0,0,0,0,0,0,0,0,0,0,0,0,0,0,0,0,0,0,0,0,0,0,0,0,0,0,0,0,0,0,0,0,0,0,0,0,0,0,0,0,0,0,0,0,0,0,0,0,0,0,0,0,0,0,0,0,0,0,0,0,0,0,0,0,0,0,0],"id":3,"left_children":[1,3,5,7,9,11,13,15,17,19,21,23,25,27,29,31,33,35,37,39,41,43,45,47,49,51,53,55,57,59,61,63,65,67,69,71,73,75,77,79,81,83,85,87,89,91,93,95,97,99,101,103,105,107,109,111,113,115,117,119,121,123,125,-1,-1,-1,-1,-1,-1,-1,-1,-1,-1,-1,-1,-1,-1,-1,-1,-1,-1,-1,-1,-1,-1,-1,-1,-1,-1,-1,-1,-1,-1,-1,-1,-1,-1,-1,-1,-1,-1,-1,-1,-1,-1,-1,-1,-1,-1,-1,-1,-1,-1,-1,-1,-1,-1,-1,-1,-1,-1,-1,-1,-1,-1,-1,-1],"loss_changes":[1.1883764E4,2.8570715E3,3.5498105E3,9.150653E2,9.048281E2,1.2135544E3,5.938457E2,5.460653E2,3.4100406E2,4.401787E2,2.1295932E2,7.38145E2,3.0027136E2,1.6134863E2,1.762926E2,1.9006421E2,1.19573875E2,1.744581E2,5.539302E1,2.4742923E2,1.762832E2,6.311248E1,1.8757202E1,2.2951978E2,1.2007141E2,1.9044278E2,9.777525E1,3.1305176E1,1.065979E2,6.1018097E1,1.01305664E2,1.13378784E2,3.1910631E1,5.762934E1,3.4175446E1,8.4492676E1,1.1459484E2,3.326598E1,2.6674469E1,1.4893127E2,8.741731E1,1.1767578E2,8.380078E1,3.8741528E1,1.6494411E1,1.5063338E1,1.7530518E1,9.6448E1,9.462036E1,5.6793686E1,1.0413243E2,1.1485516E2,4.3043053E1,7.721741E1,4.751468E1,2.8260742E1,2.1328323E1,5.299243E1,5.1733044E1,4.797647E1,5.7629368E1,8.110919E1,3.2192993E1,0E0,0E0,0E0,0E0,0E0,0E0,0E0,0E0,0E0,0E0,0E0,0E0,0E0,0E0,0E0,0E0,0E0,0E0,0E0,0E0,0E0,0E0,0E0,0E0,0E0,0E0,0E0,0E0,0E0,0E0,0E0,0E0,0E0,0E0,0E0,0E0,0E0,0E0,0E0,0E0,0E0,0E0,0E0,0E0,0E0,0E0,0E0,0E0,0E0,0E0,0E0,0E0,0E0,0E0,0E0,0E0,0E0,0E0,0E0,0E0,0E0,0E0,0E0,0E0],"parents":[2147483647,0,0,1,1,2,2,3,3,4,4,5,5,6,6,7,7,8,8,9,9,10,10,11,11,12,12,13,13,14,14,15,15,16,16,17,17,18,18,19,19,20,20,21,21,22,22,23,23,24,24,25,25,26,26,27,27,28,28,29,29,30,30,31,31,32,32,33,33,34,34,35,35,36,36,37,37,38,38,39,39,40,40,41,41,42,42,43,43,44,44,45,45,46,46,47,47,48,48,49,49,50,50,51,51,52,52,53,53,54,54,55,55,56,56,57,57,58,58,59,59,60,60,61,61,62,62],"right_children":[2,4,6,8,10,12,14,16,18,20,22,24,26,28,30,32,34,36,38,40,42,44,46,48,50,52,54,56,58,60,62,64,66,68,70,72,74,76,78,80,82,84,86,88,90,92,94,96,98,100,102,104,106,108,110,112,114,116,118,120,122,124,126,-1,-1,-1,-1,-1,-1,-1,-1,-1,-1,-1,-1,-1,-1,-1,-1,-1,-1,-1,-1,-1,-1,-1,-1,-1,-1,-1,-1,-1,-1,-1,-1,-1,-1,-1,-1,-1,-1,-1,-1,-1,-1,-1,-1,-1,-1,-1,-1,-1,-1,-1,-1,-1,-1,-1,-1,-1,-1,-1,-1,-1,-1,-1,-1],"split_conditions":[5.1091325E-1,3.0024678E-1,2.1770632E0,2.803766E0,1.9301881E0,1.4723672E-1,1.3901709E-1,6.440598E-2,1.0373964E-1,2.1948515E-1,2.3031685E-1,8.503422E-3,8.455274E-2,1.9164017E0,8.744644E-1,8.6830515E-1,6.859833E-3,3.3658367E-2,8.530605E-3,6.274608E-1,1.5674145E0,1.2817571E0,1.3603681E-2,5.7240715E0,1.9734032E-1,1.8581602E-1,4.6826202E-1,8.479221E-1,1.1597236E-1,2.5299048E-1,6.9085354E-1,2.2869784E-1,5.831341E-1,5.0237584E-1,1.5451392E0,8.6737543E-1,3.6692247E-1,4.9720818E-1,1.5919596E0,3.7863237E-1,1.3272679E-1,3.3281791E0,6.237463E-1,3.9280397E-1,8.11801E-2,3.5234375E-4,1.379509E0,6.0107446E-1,1.9662048E-1,1.1100248E0,1.9980551E-1,2.7270267E-2,2.3602278E0,3.752488E-2,2.1144077E-1,2.70001E-1,5.8050185E-2,2.0493457E-1,4.4298875E-1,3.4865278E-1,5.168142E-1,6.38146E-2,4.383727E-1,4.3336302E-1,2.2149189E-1,1.1682952E-1,-1.762508E-1,2.6948565E-1,2.581734E-2,-1.24823466E-1,3.631673E-1,8.946809E-2,2.6634288E-1,9.693911E-2,-2.579387E-2,6.724457E-2,-1.1481582E-1,-1.4745738E-1,5.359167E-2,2.0688202E-2,-1.0842282E-1,3.864409E-1,-6.869807E-3,-1.711831E-1,2.5074235E-1,-7.54646E-2,4.3726173E-1,4.2355418E-1,-1.2742208E-1,-1.695061E-1,1.23749375E-1,4.9315172E-1,-1.7129396E-1,5.7277864E-1,-1.4638239E-1,2.4808176E-1,5.4065406E-1,5.168572E-1,2.7907094E-1,1.7718698E-1,4.5677122E-1,1.1977204E-1,-7.0951395E-2,2.309538E-1,8.27252E-2,-2.1415181E-2,4.059175E-1,-4.8559504E-3,-1.346133E-1,5.1946055E-2,4.1300827E-1,5.775765E-1,2.9829025E-1,4.8071897E-1,-1.7883311E-1,3.9216897E-1,5.3762E-1,6.674816E-2,5.513511E-1,3.5472542E-1,1.2535389E-2,-6.5148085E-2,1.8862812E-1,3.2639116E-1,-4.0332075E-2,5.2638113E-1,3.041848E-1],"split_indices":[115,1052,1187,53,1393,1974,888,519,1882,848,93,1290,1559,53,980,1519,1465,1052,1988,93,1891,1227,1332,851,951,1298,93,477,688,568,1686,195,1279,1622,1393,1539,409,1622,1393,207,1290,445,26,238,1923,427,607,1458,359,614,1052,120,1269,1275,1712,519,1575,850,850,848,1062,222,2031,0,0,0,0,0,0,0,0,0,0,0,0,0,0,0,0,0,0,0,0,0,0,0,0,0,0,0,0,0,0,0,0,0,0,0,0,0,0,0,0,0,0,0,0,0,0,0,0,0,0,0,0,0,0,0,0,0,0,0,0,0,0,0,0],"split_type":[0,0,0,0,0,0,0,0,0,0,0,0,0,0,0,0,0,0,0,0,0,0,0,0,0,0,0,0,0,0,0,0,0,0,0,0,0,0,0,0,0,0,0,0,0,0,0,0,0,0,0,0,0,0,0,0,0,0,0,0,0,0,0,0,0,0,0,0,0,0,0,0,0,0,0,0,0,0,0,0,0,0,0,0,0,0,0,0,0,0,0,0,0,0,0,0,0,0,0,0,0,0,0,0,0,0,0,0,0,0,0,0,0,0,0,0,0,0,0,0,0,0,0,0,0,0,0],"sum_hessian":[4.8835867E4,3.570316E4,1.3132706E4,9.244807E3,2.6458355E4,8.496191E3,4.6365146E3,2.0806804E3,7.1641265E3,2.610707E4,3.5128412E2,3.637449E3,4.8587427E3,3.290926E3,1.3455885E3,1.3722021E3,7.0847815E2,5.394044E3,1.7700822E3,6.0678623E3,2.0039209E4,1.5117566E2,2.0010846E2,2.1648916E3,1.4725575E3,2.9809211E3,1.8778213E3,2.2240396E3,1.0668865E3,5.3176227E2,8.138262E2,1.2126545E3,1.5954765E2,3.5054016E2,3.5793802E2,1.6812263E3,3.7128176E3,3.7041278E2,1.3996693E3,5.8518643E3,2.1599806E2,1.9925117E4,1.1409184E2,6.2646923E1,8.852874E1,1.0582605E1,1.8952586E2,1.1339326E3,1.030959E3,4.0235385E2,1.0702036E3,1.9263638E3,1.0545575E3,1.7279275E3,1.4989374E2,2.208161E3,1.5878804E1,9.429442E2,1.2394229E2,2.1015298E2,3.216093E2,4.1745648E2,3.9636972E2,9.0438367E2,3.0827087E2,1.1325818E2,4.628947E1,1.6261769E2,1.8792247E2,3.454701E2,1.24679165E1,1.3868646E3,2.9436176E2,9.0429706E2,2.8085208E3,2.1735593E2,1.5305687E2,1.3379998E3,6.166951E1,9.619416E2,4.8899224E3,1.3470918E2,8.128888E1,1.9866283E4,5.883352E1,5.2491653E1,6.1600193E1,4.8172707E1,1.4474217E1,6.610108E1,2.2427658E1,4.61543E0,5.9671755E0,1.8679575E2,2.7301188E0,1.02124817E3,1.1268445E2,8.427126E2,1.882464E2,3.2012534E2,8.22285E1,6.404731E2,4.2973056E2,8.1983514E2,1.1065286E3,1.033899E3,2.0658405E1,6.811854E2,1.0467421E3,1.0238092E2,4.7512817E1,2.1717092E3,3.6451515E1,7.430083E0,8.448721E0,4.981609E2,4.447833E2,1.0010473E2,2.3837557E1,1.6243663E2,4.7716354E1,1.5107718E2,1.7053212E2,3.536097E2,6.3846767E1,3.1824652E2,7.812319E1],"tree_param":{"num_deleted":"0","num_feature":"2048","num_nodes":"127","size_leaf_vector":"1"}},{"base_weights":[1.6875503E-3,-7.925006E-2,7.361884E-1,-2.200784E-1,9.769138E-2,1.2889695E-1,8.234893E-1,-1.3576967E-1,-4.3915474E-1,2.205368E-1,-6.055784E-2,-1.0235305E-1,4.3206418E-1,6.7605567E-1,1.0211469E0,5.3565013E-3,-2.4073842E-1,-3.5208213E-1,-5.6699234E-1,2.7740446E-1,-1.842612E-1,1.1798855E-1,-1.7634915E-1,1.1160408E-1,-4.0215605E-1,7.84321E-2,6.573804E-1,4.93266E-1,8.9978427E-1,1.0883964E0,6.650427E-1,-1.886121E-1,1.198898E-1,-3.2003847E-1,-1.3141862E-1,-3.5812506E-1,6.541857E-1,-5.6866497E-1,3.9238784E-1,1.6952173E-1,4.5961246E-1,-1.5794817E-2,-5.0352E-1,1.0085115E-2,4.2742306E-1,-1.3571009E-1,-4.762297E-1,4.8506427E-1,-1.22092135E-1,3.6802316E-1,-4.31974E-1,-1.6529244E-1,6.5291345E-1,9.469259E-1,1.4678499E-1,5.951898E-1,-1.1571196E-2,7.442024E-1,1.1704602E0,1.1039503E0,1.3702379E-1,2.5195274E-1,9.088356E-1,7.8102187E-3,-7.63727E-2,5.948316E-2,-2.877344E-2,-1.4764479E-1,-8.4251136E-2,-7.748114E-2,-6.570048E-3,-1.5835774E-1,-9.766543E-2,4.2119297E-1,-6.4826064E-2,-1.7092434E-1,3.3792388E-1,3.0609656E-2,1.1021731E-1,7.739714E-2,1.820131E-1,2.1495523E-2,-9.2535295E-2,-1.5411189E-1,3.6755756E-1,1.7656691E-2,-1.1450226E-1,2.1680428E-1,5.0236955E-2,-5.1693875E-2,3.3265512E-2,-1.4938617E-1,1.1067503E-1,5.366209E-2,3.3593577E-1,-5.644489E-2,3.8939822E-1,-1.3684541E-1,3.485253E-1,2.1347304E-1,-9.134343E-2,3.779833E-2,4.435448E-1,3.2223734E-1,-7.8940175E-2,-5.4030947E-2,2.6085144E-1,2.2116008E-1,9.808401E-2,1.8197514E-1,-4.358848E-2,2.4881642E-1,1.9293021E-2,3.738119E-1,7.320944E-2,3.4455344E-1,2.4591376E-1,-7.975874E-2,4.019558E-1,2.8524749E-2,4.041135E-1,3.0774E-1,7.2342757E-4],"categories":[],"categories_nodes":[],"categories_segments":[],"categories_sizes":[],"default_left":[0,0,0,0,0,0,0,0,0,0,0,0,0,0,0,0,0,0,0,0,0,0,0,0,0,0,0,0,0,0,0,0,0,0,0,0,0,0,0,0,0,0,0,0,0,0,0,0,0,0,0,0,0,0,0,0,0,0,0,0,0,0,0,0,0,0,0,0,0,0,0,0,0,0,0,0,0,0,0,0,0,0,0,0,0,0,0,0,0,0,0,0,0,0,0,0,0,0,0,0,0,0,0,0,0,0,0,0,0,0,0,0,0,0,0,0,0,0,0,0,0,0,0],"id":4,"left_children":[1,3,5,7,9,11,13,15,17,19,21,23,25,27,29,31,33,35,37,39,41,43,45,47,49,51,53,55,57,59,61,63,65,67,69,71,73,75,-1,77,79,81,83,85,87,89,91,93,95,-1,97,99,101,103,105,107,109,111,113,115,117,119,121,-1,-1,-1,-1,-1,-1,-1,-1,-1,-1,-1,-1,-1,-1,-1,-1,-1,-1,-1,-1,-1,-1,-1,-1,-1,-1,-1,-1,-1,-1,-1,-1,-1,-1,-1,-1,-1,-1,-1,-1,-1,-1,-1,-1,-1,-1,-1,-1,-1,-1,-1,-1,-1,-1,-1,-1,-1,-1,-1,-1],"loss_changes":[2.8747334E3,1.0853865E3,2.5435986E2,4.4790833E2,3.7528845E2,4.2420174E1,1.2159448E2,2.594691E2,7.481897E1,2.5022998E2,1.7445155E2,2.209154E1,2.0803852E1,9.796838E1,4.2162476E1,1.6601701E2,8.703302E1,2.4627838E1,9.30188E0,1.8724683E2,7.202574E1,1.10838745E2,6.2312744E1,1.7632118E1,7.492611E0,1.4529631E1,2.3477318E1,6.8267456E1,4.464557E1,2.21156E1,2.8678383E1,3.9288483E1,7.949948E1,3.91344E1,5.868463E1,2.1878784E1,1.6160042E1,5.6474E0,0E0,7.991635E1,1.0493469E2,2.248463E1,8.775024E0,4.7070633E1,6.5759735E1,4.0717308E1,1.1391708E1,1.4900467E1,1.1937068E1,0E0,5.9828033E0,9.140463E0,1.3248351E1,1.5944214E1,1.4092643E1,4.1805817E1,1.8589937E1,3.9856323E1,2.7196167E1,1.780957E1,1.2639575E1,1.8410278E1,1.9094345E1,0E0,0E0,0E0,0E0,0E0,0E0,0E0,0E0,0E0,0E0,0E0,0E0,0E0,0E0,0E0,0E0,0E0,0E0,0E0,0E0,0E0,0E0,0E0,0E0,0E0,0E0,0E0,0E0,0E0,0E0,0E0,0E0,0E0,0E0,0E0,0E0,0E0,0E0,0E0,0E0,0E0,0E0,0E0,0E0,0E0,0E0,0E0,0E0,0E0,0E0,0E0,0E0,0E0,0E0,0E0,0E0,0E0,0E0,0E0,0E0],"parents":[2147483647,0,0,1,1,2,2,3,3,4,4,5,5,6,6,7,7,8,8,9,9,10,10,11,11,12,12,13,13,14,14,15,15,16,16,17,17,18,18,19,19,20,20,21,21,22,22,23,23,24,24,25,25,26,26,27,27,28,28,29,29,30,30,31,31,32,32,33,33,34,34,35,35,36,36,37,37,39,39,40,40,41,41,42,42,43,43,44,44,45,45,46,46,47,47,48,48,50,50,51,51,52,52,53,53,54,54,55,55,56,56,57,57,58,58,59,59,60,60,61,61,62,62],"right_children":[2,4,6,8,10,12,14,16,18,20,22,24,26,28,30,32,34,36,38,40,42,44,46,48,50,52,54,56,58,60,62,64,66,68,70,72,74,76,-1,78,80,82,84,86,88,90,92,94,96,-1,98,100,102,104,106,108,110,112,114,116,118,120,122,-1,-1,-1,-1,-1,-1,-1,-1,-1,-1,-1,-1,-1,-1,-1,-1,-1,-1,-1,-1,-1,-1,-1,-1,-1,-1,-1,-1,-1,-1,-1,-1,-1,-1,-1,-1,-1,-1,-1,-1,-1,-1,-1,-1,-1,-1,-1,-1,-1,-1,-1,-1,-1,-1,-1,-1,-1,-1,-1,-1],"split_conditions":[5.352803E-1,5.3859517E-2,1.8324426E-3,6.290153E-1,4.42654E0,2.5307966E-2,4.4011196E-1,4.3738594E0,2.4318304E0,7.2638834E-1,1.5000184E0,7.9524846E0,5.8414284E-2,1.3028316E0,2.919635E0,1.2744772E-1,1.6697642E0,1.623581E0,1.2280033E0,3.8766354E-1,3.2007658E-1,6.146147E-1,8.961209E-1,2.3607668E-1,3.0556768E-2,4.48117E-2,8.154867E0,5.289732E-1,7.3138654E-1,3.9694781E0,2.3781251E-2,1.1862496E0,2.7317705E0,6.635147E-2,5.081491E-1,1.6727391E0,5.149438E-1,5.344242E-1,3.9238784E-1,1.7794807E-1,3.3944666E-1,5.152209E-1,3.6930788E0,3.4043273E-1,3.4606713E-1,6.4414096E-1,6.337717E-1,1.0372212E-3,2.0641899E-1,3.6802316E-1,9.9987425E-3,4.3559363E-1,1.00796465E-2,1.089795E0,1.1129313E0,9.319537E-2,3.151932E-1,2.3724453E0,1.1992997E0,1.6807511E0,4.9648955E-1,8.773286E-2,1.3290879E0,7.8102187E-3,-7.63727E-2,5.948316E-2,-2.877344E-2,-1.4764479E-1,-8.4251136E-2,-7.748114E-2,-6.570048E-3,-1.5835774E-1,-9.766543E-2,4.2119297E-1,-6.4826064E-2,-1.7092434E-1,3.3792388E-1,3.0609656E-2,1.1021731E-1,7.739714E-2,1.820131E-1,2.1495523E-2,-9.2535295E-2,-1.5411189E-1,3.6755756E-1,1.7656691E-2,-1.1450226E-1,2.1680428E-1,5.0236955E-2,-5.1693875E-2,3.3265512E-2,-1.4938617E-1,1.1067503E-1,5.366209E-2,3.3593577E-1,-5.644489E-2,3.8939822E-1,-1.3684541E-1,3.485253E-1,2.1347304E-1,-9.134343E-2,3.779833E-2,4.435448E-1,3.2223734E-1,-7.8940175E-2,-5.4030947E-2,2.6085144E-1,2.2116008E-1,9.808401E-2,1.8197514E-1,-4.358848E-2,2.4881642E-1,1.9293021E-2,3.738119E-1,7.320944E-2,3.4455344E-1,2.4591376E-1,-7.975874E-2,4.019558E-1,2.8524749E-2,4.041135E-1,3.0774E-1,7.2342757E-4],"split_indices":[227,120,569,1268,435,481,1759,435,1187,32,430,101,888,1669,666,568,1094,607,428,1178,93,403,1573,1239,734,796,51,32,428,663,1156,430,666,1052,1622,53,78,149,0,71,1669,1573,178,158,1269,1697,1454,497,1400,0,1524,734,1052,416,573,960,779,1470,726,624,81,738,1594,0,0,0,0,0,0,0,0,0,0,0,0,0,0,0,0,0,0,0,0,0,0,0,0,0,0,0,0,0,0,0,0,0,0,0,0,0,0,0,0,0,0,0,0,0,0,0,0,0,0,0,0,0,0,0,0,0,0,0,0],"split_type":[0,0,0,0,0,0,0,0,0,0,0,0,0,0,0,0,0,0,0,0,0,0,0,0,0,0,0,0,0,0,0,0,0,0,0,0,0,0,0,0,0,0,0,0,0,0,0,0,0,0,0,0,0,0,0,0,0,0,0,0,0,0,0,0,0,0,0,0,0,0,0,0,0,0,0,0,0,0,0,0,0,0,0,0,0,0,0,0,0,0,0,0,0,0,0,0,0,0,0,0,0,0,0,0,0,0,0,0,0,0,0,0,0,0,0,0,0,0,0,0,0,0,0],"sum_hessian":[4.8354523E4,4.3555824E4,4.7987E3,2.4252738E4,1.9303086E4,6.034432E2,4.195257E3,1.751423E4,6.738508E3,1.0866931E4,8.436154E3,3.427004E2,2.6074277E2,2.4054453E3,1.7898115E3,7.4708853E3,1.0043347E4,4.0105798E3,2.727928E3,9.528626E3,1.3383049E3,3.318743E3,5.1174116E3,2.0034799E2,1.4235243E2,1.0200102E2,1.5874173E2,1.3256082E3,1.0798372E3,1.5037711E3,2.8604034E2,2.7733735E3,4.697511E3,5.81978E3,4.2235664E3,3.9872793E3,2.3300562E1,2.7261926E3,1.7352722E0,5.9862095E3,3.5424167E3,8.767247E2,4.6158026E2,2.461442E3,8.57301E2,4.5079575E3,6.0945435E2,7.67005E1,1.2364749E2,1.8374009E0,1.4051503E2,7.211739E1,2.9883633E1,1.0075284E2,5.7988895E1,1.1027833E3,2.2282481E2,6.880832E2,3.9175394E2,1.479424E3,2.4347246E1,1.06914566E2,1.7912578E2,6.5208527E2,2.1212883E3,3.445906E3,1.2516053E3,1.0775071E3,4.742273E3,1.9562935E3,2.267273E3,6.39545E2,3.3477344E3,1.2187261E1,1.1113301E1,2.7251157E3,1.0769132E0,4.464848E3,1.5213615E3,1.4954323E3,2.0469844E3,6.756065E2,2.0111815E2,4.595751E2,2.0051606E0,2.1896943E3,2.7174756E2,4.0057117E2,4.5672986E2,3.9255742E3,5.8238306E2,5.9458167E2,1.4872685E1,5.2605396E1,2.4095104E1,1.18980446E2,4.667051E0,1.3911833E2,1.3966908E0,9.315753E0,6.280164E1,1.8944763E1,1.09388685E1,9.127099E1,9.481848E0,4.0445904E1,1.7542994E1,7.1990857E2,3.8287473E2,3.9001114E1,1.838237E2,6.1127496E2,7.680822E1,3.618858E2,2.9868149E1,1.2762937E3,2.0313026E2,1.8821856E1,5.525391E0,9.446887E1,1.2445691E1,1.585366E2,2.0589174E1],"tree_param":{"num_deleted":"0","num_feature":"2048","num_nodes":"123","size_leaf_vector":"1"}},{"base_weights":[3.380941E-3,-3.2159743E-1,1.19265296E-1,-4.6224165E-1,-1.07495494E-1,-3.9879967E-2,2.2605222E-1,-5.3466576E-1,-2.896195E-1,-3.7904054E-1,-2.6635302E-3,-2.5574175E-1,8.038877E-3,6.3616335E-2,3.2174814E-1,-5.7146806E-1,-4.3473798E-1,-4.1012663E-1,-9.322096E-2,-4.3830836E-1,-1.3977341E-1,-7.4194014E-2,3.2976052E-1,-2.668094E-1,8.937648E-1,1.2689508E-1,-7.5121626E-2,-5.2422427E-2,2.096134E-1,4.2686576E-1,1.4055401E-1,-5.741282E-1,1.1325957E0,-4.5854282E-1,3.4427604E-1,-4.363533E-1,3.9426664E-1,-2.50063E-1,4.6642685E-1,-4.5291653E-1,8.457491E-1,1.20084964E-1,-3.6749345E-1,-1.444318E-1,2.4524723E-1,7.14241E-1,2.2185035E-1,-2.994248E-1,1.3065846E-1,1.7512645E0,-1.4819768E-1,-6.407109E-3,2.6469985E-1,-1.2581635E-1,2.1004449E-1,3.5911202E-2,-2.044714E-1,1.3405839E-1,6.6249233E-1,2.7454063E-1,5.6052035E-1,-1.505387E-1,2.0534924E-1,-1.7282988E-1,3.4325314E-1,5.377296E-1,-1.2186574E-1,-1.4234978E-1,1.3239324E-1,-6.45864E-2,3.301548E-1,-1.3404049E-1,2.782442E-1,2.600953E-1,-1.8056396E-1,-8.7607756E-2,1.6542332E-1,2.247514E-1,-1.4568036E-2,-1.5041496E-1,-6.509242E-2,3.1311905E-1,-1.1692571E-1,2.8937104E-1,-2.4775313E-2,-1.3386649E-1,2.549945E-1,-8.179922E-2,6.3469843E-3,-7.1747233E-3,1.6351102E-1,-1.884212E-1,2.5538692E-1,1.6182473E-2,1.5696983E-1,-6.687979E-2,-1.2720992E-1,2.7296615E-1,-8.131302E-3,5.847337E-1,1.2801649E-1,3.4581023E-1,-1.7380932E-1,4.6841405E-2,-4.0913947E-2,5.0630648E-2,1.6566607E-1,-6.462031E-2,-1.1574821E-2,6.0775075E-3,1.95024E-1,-2.0005205E-3,1.371536E-1,-8.3436586E-2,3.0298872E-2,3.0245555E-3,1.089582E-1,1.1060083E-1,2.6716363E-1,6.667519E-2,2.2699858E-1,1.7729463E-1,-9.417487E-2,-9.514541E-2,1.8488515E-2,1.14222035E-1,1.7385662E-2],"categories":[],"categories_nodes":[],"categories_segments":[],"categories_sizes":[],"default_left":[0,0,0,0,0,0,0,0,0,0,0,0,0,0,0,0,0,0,0,0,0,0,0,0,0,0,0,0,0,0,0,0,0,0,0,0,0,0,0,0,0,0,0,0,0,0,0,0,0,0,0,0,0,0,0,0,0,0,0,0,0,0,0,0,0,0,0,0,0,0,0,0,0,0,0,0,0,0,0,0,0,0,0,0,0,0,0,0,0,0,0,0,0,0,0,0,0,0,0,0,0,0,0,0,0,0,0,0,0,0,0,0,0,0,0,0,0,0,0,0,0,0,0,0,0,0,0],"id":5,"left_children":[1,3,5,7,9,11,13,15,17,19,21,23,25,27,29,31,33,35,37,39,41,43,45,47,49,51,53,55,57,59,61,63,65,67,69,71,73,75,77,79,81,83,85,87,89,91,93,95,97,99,101,103,105,107,109,111,113,115,117,119,121,123,125,-1,-1,-1,-1,-1,-1,-1,-1,-1,-1,-1,-1,-1,-1,-1,-1,-1,-1,-1,-1,-1,-1,-1,-1,-1,-1,-1,-1,-1,-1,-1,-1,-1,-1,-1,-1,-1,-1,-1,-1,-1,-1,-1,-1,-1,-1,-1,-1,-1,-1,-1,-1,-1,-1,-1,-1,-1,-1,-1,-1,-1,-1,-1,-1],"loss_changes":[1.822608E3,3.8302014E2,6.0629376E2,9.582947E1,1.4360994E2,1.4819238E2,3.3184802E2,1.9636963E1,5.3717514E1,1.9864807E1,8.659585E1,3.3349503E1,1.1589943E2,1.3412006E2,2.5582385E2,1.854956E1,2.7225006E1,2.9861496E1,7.60415E1,2.1498886E1,1.6638536E1,6.727591E1,2.6596848E1,3.3466248E1,2.2640505E1,8.867061E1,9.9759964E1,5.925657E1,1.1986757E2,1.7293079E2,9.3091385E1,1.40164795E1,7.318657E0,2.0551575E1,1.8792854E1,1.9841858E1,2.1693798E1,2.290593E1,2.7658009E1,1.26267395E1,3.5894737E0,2.2624786E1,1.4728264E1,5.2184246E1,4.3630695E1,2.6450623E1,2.552691E1,2.262207E1,2.4149128E1,2.7896233E0,7.527831E0,5.1876495E1,6.537021E1,4.5772484E1,8.6981445E1,5.0069336E1,3.650157E1,8.538158E1,3.324176E1,1.0004874E2,1.2078076E2,3.1794533E1,1.04317764E2,0E0,0E0,0E0,0E0,0E0,0E0,0E0,0E0,0E0,0E0,0E0,0E0,0E0,0E0,0E0,0E0,0E0,0E0,0E0,0E0,0E0,0E0,0E0,0E0,0E0,0E0,0E0,0E0,0E0,0E0,0E0,0E0,0E0,0E0,0E0,0E0,0E0,0E0,0E0,0E0,0E0,0E0,0E0,0E0,0E0,0E0,0E0,0E0,0E0,0E0,0E0,0E0,0E0,0E0,0E0,0E0,0E0,0E0,0E0,0E0,0E0,0E0,0E0,0E0],"parents":[2147483647,0,0,1,1,2,2,3,3,4,4,5,5,6,6,7,7,8,8,9,9,10,10,11,11,12,12,13,13,14,14,15,15,16,16,17,17,18,18,19,19,20,20,21,21,22,22,23,23,24,24,25,25,26,26,27,27,28,28,29,29,30,30,31,31,32,32,33,33,34,34,35,35,36,36,37,37,38,38,39,39,40,40,41,41,42,42,43,43,44,44,45,45,46,46,47,47,48,48,49,49,50,50,51,51,52,52,53,53,54,54,55,55,56,56,57,57,58,58,59,59,60,60,61,61,62,62],"right_children":[2,4,6,8,10,12,14,16,18,20,22,24,26,28,30,32,34,36,38,40,42,44,46,48,50,52,54,56,58,60,62,64,66,68,70,72,74,76,78,80,82,84,86,88,90,92,94,96,98,100,102,104,106,108,110,112,114,116,118,120,122,124,126,-1,-1,-1,-1,-1,-1,-1,-1,-1,-1,-1,-1,-1,-1,-1,-1,-1,-1,-1,-1,-1,-1,-1,-1,-1,-1,-1,-1,-1,-1,-1,-1,-1,-1,-1,-1,-1,-1,-1,-1,-1,-1,-1,-1,-1,-1,-1,-1,-1,-1,-1,-1,-1,-1,-1,-1,-1,-1,-1,-1,-1,-1,-1,-1],"split_conditions":[2.8996406E0,1.9496197E-2,1.3217969E-1,2.1188033E0,4.0544233E-1,3.6657864E-1,1.416505E0,2.5818672E-2,4.4508266E0,1.6174595E-1,2.9487965E0,6.2128276E-1,5.960833E-1,6.6094893E-1,1.9061452E0,1.5920354E0,6.5202966E0,3.3088224E0,1.8842845E-1,1.1204039E0,3.4127699E-3,2.833628E-1,9.411908E-3,2.0068863E-1,7.468886E-2,4.686702E-1,1.8023885E0,9.086915E-2,2.3508184E0,1.019478E0,4.8342416E-1,6.636833E0,4.6577364E-2,1.4643131E0,5.1912382E-2,4.7183344E-1,5.494749E-1,6.530017E-1,1.0329721E-2,1.4636321E-1,2.319858E-2,3.0711426E-3,2.362922E0,5.571074E-1,6.2272435E-1,4.5846656E-1,1.5369642E-1,3.331125E0,1.1801987E-3,1.3263736E-4,1.840612E-2,4.3754175E-1,4.805656E-1,1.0880044E0,8.6163735E-1,2.0737195E0,8.1063825E-1,1.1267113E-2,1.5644602E-1,6.575639E0,2.4135442E0,4.9367404E-1,2.3054995E-1,-1.7282988E-1,3.4325314E-1,5.377296E-1,-1.2186574E-1,-1.4234978E-1,1.3239324E-1,-6.45864E-2,3.301548E-1,-1.3404049E-1,2.782442E-1,2.600953E-1,-1.8056396E-1,-8.7607756E-2,1.6542332E-1,2.247514E-1,-1.4568036E-2,-1.5041496E-1,-6.509242E-2,3.1311905E-1,-1.1692571E-1,2.8937104E-1,-2.4775313E-2,-1.3386649E-1,2.549945E-1,-8.179922E-2,6.3469843E-3,-7.1747233E-3,1.6351102E-1,-1.884212E-1,2.5538692E-1,1.6182473E-2,1.5696983E-1,-6.687979E-2,-1.2720992E-1,2.7296615E-1,-8.131302E-3,5.847337E-1,1.2801649E-1,3.4581023E-1,-1.7380932E-1,4.6841405E-2,-4.0913947E-2,5.0630648E-2,1.6566607E-1,-6.462031E-2,-1.1574821E-2,6.0775075E-3,1.95024E-1,-2.0005205E-3,1.371536E-1,-8.3436586E-2,3.0298872E-2,3.0245555E-3,1.089582E-1,1.1060083E-1,2.6716363E-1,6.667519E-2,2.2699858E-1,1.7729463E-1,-9.417487E-2,-9.514541E-2,1.8488515E-2,1.14222035E-1,1.7385662E-2],"split_indices":[53,2037,186,53,462,1041,664,840,435,703,1594,8,1052,180,1529,1435,1946,1311,1275,869,1680,708,63,1559,1912,1693,1594,300,294,1655,977,663,536,629,448,262,47,1337,763,935,1336,1486,985,824,894,409,861,1094,329,929,887,980,360,894,1394,1311,381,308,218,856,1393,1522,627,0,0,0,0,0,0,0,0,0,0,0,0,0,0,0,0,0,0,0,0,0,0,0,0,0,0,0,0,0,0,0,0,0,0,0,0,0,0,0,0,0,0,0,0,0,0,0,0,0,0,0,0,0,0,0,0,0,0,0,0,0,0,0,0],"split_type":[0,0,0,0,0,0,0,0,0,0,0,0,0,0,0,0,0,0,0,0,0,0,0,0,0,0,0,0,0,0,0,0,0,0,0,0,0,0,0,0,0,0,0,0,0,0,0,0,0,0,0,0,0,0,0,0,0,0,0,0,0,0,0,0,0,0,0,0,0,0,0,0,0,0,0,0,0,0,0,0,0,0,0,0,0,0,0,0,0,0,0,0,0,0,0,0,0,0,0,0,0,0,0,0,0,0,0,0,0,0,0,0,0,0,0,0,0,0,0,0,0,0,0,0,0,0,0],"sum_hessian":[4.8394484E4,1.2720417E4,3.5674066E4,7.676526E3,5.0438916E3,1.4325423E4,2.1348645E4,5.4062295E3,2.2702964E3,1.4041421E3,3.6397493E3,2.601593E3,1.172383E4,7.915093E3,1.3433552E4,3.9476377E3,1.4585917E3,1.406315E3,8.639813E2,1.1247126E3,2.7942953E2,2.995878E3,6.4387146E2,2.577544E3,2.4049143E1,4.825917E3,6.897913E3,4.4103657E3,3.504727E3,8.5006455E3,4.932906E3,3.9421467E3,5.490799E0,1.4157413E3,4.2850372E1,1.362354E3,4.396104E1,6.75285E2,1.8869633E2,1.1127012E3,1.2011442E1,1.3072633E2,1.4870319E2,2.4563342E3,5.395436E2,1.3987662E2,5.0399487E2,2.3823037E3,1.9524028E2,1.2818893E1,1.1230249E1,2.4535178E3,2.3723992E3,5.857219E3,1.0406941E3,2.7901675E3,1.6201984E3,3.004735E3,4.9999203E2,3.9742632E3,4.526383E3,8.9787524E2,4.0350305E3,3.9382932E3,3.853638E0,3.7276058E0,1.7631932E0,1.391539E3,2.4202406E1,2.503877E1,1.7811602E1,1.3526636E3,9.690338E0,2.9901197E1,1.4059843E1,6.4229205E2,3.2992897E1,1.21522064E2,6.717426E1,9.2215015E2,1.9055104E2,1.0486299E1,1.5251439E0,2.4573565E1,1.0615277E2,1.4026634E2,8.436851E0,1.383951E3,1.0723832E3,2.8477838E2,2.547652E2,1.2626325E1,1.272503E2,3.244265E2,1.7956833E2,1.4778795E3,9.0442413E2,3.207023E1,1.6317006E2,1.0742711E1,2.0761826E0,2.3789957E0,8.8512535E0,1.0900675E3,1.3634502E3,1.7800675E3,5.923317E2,2.8889443E3,2.968275E3,7.278293E2,3.128648E2,2.5349333E3,2.5523422E2,1.3055178E3,3.146806E2,1.9504597E3,1.0542753E3,2.1963351E2,2.8035852E2,3.5867153E3,3.8754776E2,4.3743237E3,1.5205899E2,5.026525E2,3.9522278E2,1.841823E3,2.1932075E3],"tree_param":{"num_deleted":"0","num_feature":"2048","num_nodes":"127","size_leaf_vector":"1"}},{"base_weights":[2.007127E-3,-2.0655152E-1,2.3426414E-1,-3.5498837E-1,-4.974049E-2,9.318963E-2,5.5616164E-1,-4.0001535E-1,-1.3201526E-1,-9.1810994E-2,2.502587E-1,2.017602E-1,-8.01558E-2,6.6810745E-1,1.7394246E-1,-5.0975007E-1,-3.1234425E-1,-2.2304279E-1,9.183021E-2,-4.367348E-2,-2.5954333E-1,4.6046132E-1,7.0635155E-2,3.9210737E-1,5.3885053E-3,-2.0989555E-1,7.345212E-2,7.260671E-1,8.332754E-2,2.783198E-1,-4.3621346E-1,-5.542035E-1,-3.3615988E-1,-3.8884363E-1,-1.9873707E-1,-2.8203884E-1,1.2051769E-1,-2.7674076E-1,2.5152588E-1,-1.06687196E-1,8.72182E-2,-3.3150554E-1,-1.0734885E-2,5.7732415E-1,4.1784407E-3,3.2827982E-1,-6.8177566E-2,1.3064174E-1,5.0371677E-1,9.081E-2,-2.7633864E-1,-2.7005178E-1,4.294835E-2,3.8344437E-1,5.426567E-4,8.572198E-1,5.613628E-1,3.8730496E-1,-2.243912E-1,5.255857E-1,8.5819855E-2,-5.026428E-1,8.379151E-1,-1.7649262E-1,-1.1856193E-1,-1.1453522E-1,8.7072484E-2,-1.2080234E-1,5.3585924E-2,5.5475913E-2,-7.120358E-2,-8.774547E-2,3.601551E-1,-3.99333E-3,2.706487E-1,1.0682889E-1,-1.3263384E-1,1.6514167E-1,1.8219406E-2,-4.141713E-2,1.0766273E-1,-8.369847E-3,1.0340619E-1,-7.831218E-2,-1.7145875E-1,-2.3255585E-2,1.7033488E-1,1.244028E-1,2.9356527E-1,-1.2537682E-1,1.3990183E-1,1.5603796E-1,-3.4119997E-2,1.5951112E-1,-5.126303E-2,1.349965E-1,8.675171E-3,1.6739817E-1,-9.985365E-3,-1.1914505E-2,7.7932596E-2,-1.0296964E-1,9.185835E-2,-1.064116E-2,-1.0034729E-1,-7.119908E-2,6.981039E-2,8.772373E-2,3.583507E-1,5.9092794E-2,-2.4108032E-2,2.6390448E-1,-5.996928E-3,5.3735428E-2,2.0005876E-1,-3.208425E-2,1.7878234E-1,2.77066E-1,-9.1909245E-2,2.0506048E-1,4.810265E-2,-3.4143616E-2,1.05062105E-1,-1.6815853E-1,1.626544E-1,-1.5657943E-1,4.5661584E-1],"categories":[],"categories_nodes":[],"categories_segments":[],"categories_sizes":[],"default_left":[0,0,0,0,0,0,0,0,0,0,0,0,0,0,0,0,0,0,0,0,0,0,0,0,0,0,0,0,0,0,0,0,0,0,0,0,0,0,0,0,0,0,0,0,0,0,0,0,0,0,0,0,0,0,0,0,0,0,0,0,0,0,0,0,0,0,0,0,0,0,0,0,0,0,0,0,0,0,0,0,0,0,0,0,0,0,0,0,0,0,0,0,0,0,0,0,0,0,0,0,0,0,0,0,0,0,0,0,0,0,0,0,0,0,0,0,0,0,0,0,0,0,0,0,0,0,0],"id":6,"left_children":[1,3,5,7,9,11,13,15,17,19,21,23,25,27,29,31,33,35,37,39,41,43,45,47,49,51,53,55,57,59,61,63,65,67,69,71,73,75,77,79,81,83,85,87,89,91,93,95,97,99,101,103,105,107,109,111,113,115,117,119,121,123,125,-1,-1,-1,-1,-1,-1,-1,-1,-1,-1,-1,-1,-1,-1,-1,-1,-1,-1,-1,-1,-1,-1,-1,-1,-1,-1,-1,-1,-1,-1,-1,-1,-1,-1,-1,-1,-1,-1,-1,-1,-1,-1,-1,-1,-1,-1,-1,-1,-1,-1,-1,-1,-1,-1,-1,-1,-1,-1,-1,-1,-1,-1,-1,-1],"loss_changes":[2.3433003E3,5.9326416E2,1.0393132E3,1.3140515E2,1.564711E2,2.995337E2,2.982871E2,1.0464026E2,4.4875896E1,8.777111E1,5.7539772E1,3.6578488E2,1.2217499E2,1.8275513E2,1.008233E2,3.713391E1,5.257196E1,3.1759872E1,3.7569366E1,6.969458E1,4.3400696E1,3.745201E1,2.9470201E1,1.4494513E2,1.1596723E2,5.0559326E1,6.3451546E1,1.0552319E2,4.5689445E1,6.425329E1,2.0004189E1,2.0637817E1,2.8362312E1,2.8477112E1,3.6182854E1,2.1044243E1,2.4081503E1,2.0363438E1,2.5350145E1,8.334897E1,8.140379E1,3.165268E1,2.1095583E1,3.6086E1,2.8330574E1,2.4520712E1,3.3107372E1,4.832313E1,1.0151538E2,8.1558044E1,4.379397E1,4.0570923E1,3.4070152E1,3.9119133E1,3.6151997E1,5.3808716E1,8.772363E1,2.5391647E1,2.3140205E1,3.39917E1,4.019131E1,1.3641571E1,1.1809539E1,0E0,0E0,0E0,0E0,0E0,0E0,0E0,0E0,0E0,0E0,0E0,0E0,0E0,0E0,0E0,0E0,0E0,0E0,0E0,0E0,0E0,0E0,0E0,0E0,0E0,0E0,0E0,0E0,0E0,0E0,0E0,0E0,0E0,0E0,0E0,0E0,0E0,0E0,0E0,0E0,0E0,0E0,0E0,0E0,0E0,0E0,0E0,0E0,0E0,0E0,0E0,0E0,0E0,0E0,0E0,0E0,0E0,0E0,0E0,0E0,0E0,0E0,0E0,0E0],"parents":[2147483647,0,0,1,1,2,2,3,3,4,4,5,5,6,6,7,7,8,8,9,9,10,10,11,11,12,12,13,13,14,14,15,15,16,16,17,17,18,18,19,19,20,20,21,21,22,22,23,23,24,24,25,25,26,26,27,27,28,28,29,29,30,30,31,31,32,32,33,33,34,34,35,35,36,36,37,37,38,38,39,39,40,40,41,41,42,42,43,43,44,44,45,45,46,46,47,47,48,48,49,49,50,50,51,51,52,52,53,53,54,54,55,55,56,56,57,57,58,58,59,59,60,60,61,61,62,62],"right_children":[2,4,6,8,10,12,14,16,18,20,22,24,26,28,30,32,34,36,38,40,42,44,46,48,50,52,54,56,58,60,62,64,66,68,70,72,74,76,78,80,82,84,86,88,90,92,94,96,98,100,102,104,106,108,110,112,114,116,118,120,122,124,126,-1,-1,-1,-1,-1,-1,-1,-1,-1,-1,-1,-1,-1,-1,-1,-1,-1,-1,-1,-1,-1,-1,-1,-1,-1,-1,-1,-1,-1,-1,-1,-1,-1,-1,-1,-1,-1,-1,-1,-1,-1,-1,-1,-1,-1,-1,-1,-1,-1,-1,-1,-1,-1,-1,-1,-1,-1,-1,-1,-1,-1,-1,-1,-1],"split_conditions":[1.7559905E0,1.43515915E-2,8.183564E-1,1.6214277E-1,1.2880251E-1,1.0421707E1,8.3641666E-1,2.3832216E0,2.2513066E-1,1.4472377E0,1.0589771E1,2.2798587E-2,1.6319904E-2,1.6740601E-1,2.0481247E-2,3.7645096E-1,1.3277866E-2,6.9592156E0,9.493851E-2,4.7214293E0,6.6625756E-1,3.836418E0,1.3110496E-1,4.9440007E0,2.167649E-1,3.6740407E-2,5.171382E-1,8.001522E-3,4.6781427E-3,1.1361954E-2,6.685875E-1,2.7295535E-2,1.6787218E-1,3.3740234E-1,4.780957E-1,5.0629106E0,1.7795026E-1,1.632041E-2,2.488345E-1,1.2495873E0,2.256403E0,1.5451392E0,5.0961477E-1,7.714787E-2,3.0285048E-1,1.189318E-2,1.1337092E-1,3.1279725E-1,1.8631952E0,1.7451084E-1,1.1823217E0,9.0815586E-1,1.7205313E-1,4.0590053E0,1.7089503E-4,3.4327867E0,2.3214994E-1,8.97101E-2,2.9869743E-3,1.6132863E-1,3.1442363E0,6.634107E0,4.437939E-1,-1.7649262E-1,-1.1856193E-1,-1.1453522E-1,8.7072484E-2,-1.2080234E-1,5.3585924E-2,5.5475913E-2,-7.120358E-2,-8.774547E-2,3.601551E-1,-3.99333E-3,2.706487E-1,1.0682889E-1,-1.3263384E-1,1.6514167E-1,1.8219406E-2,-4.141713E-2,1.0766273E-1,-8.369847E-3,1.0340619E-1,-7.831218E-2,-1.7145875E-1,-2.3255585E-2,1.7033488E-1,1.244028E-1,2.9356527E-1,-1.2537682E-1,1.3990183E-1,1.5603796E-1,-3.4119997E-2,1.5951112E-1,-5.126303E-2,1.349965E-1,8.675171E-3,1.6739817E-1,-9.985365E-3,-1.1914505E-2,7.7932596E-2,-1.0296964E-1,9.185835E-2,-1.064116E-2,-1.0034729E-1,-7.119908E-2,6.981039E-2,8.772373E-2,3.583507E-1,5.9092794E-2,-2.4108032E-2,2.6390448E-1,-5.996928E-3,5.3735428E-2,2.0005876E-1,-3.208425E-2,1.7878234E-1,2.77066E-1,-9.1909245E-2,2.0506048E-1,4.810265E-2,-3.4143616E-2,1.05062105E-1,-1.6815853E-1,1.626544E-1,-1.5657943E-1,4.5661584E-1],"split_indices":[207,316,873,1153,122,551,598,53,649,1723,116,624,316,1466,1069,1285,1911,435,1619,792,1674,1892,760,792,227,892,851,960,682,1576,1475,532,334,3,184,1240,1397,1246,492,1184,734,1393,1567,1636,522,1497,529,625,1594,395,1587,694,180,1298,87,1312,1988,716,1780,1506,430,53,771,0,0,0,0,0,0,0,0,0,0,0,0,0,0,0,0,0,0,0,0,0,0,0,0,0,0,0,0,0,0,0,0,0,0,0,0,0,0,0,0,0,0,0,0,0,0,0,0,0,0,0,0,0,0,0,0,0,0,0,0,0,0,0,0],"split_type":[0,0,0,0,0,0,0,0,0,0,0,0,0,0,0,0,0,0,0,0,0,0,0,0,0,0,0,0,0,0,0,0,0,0,0,0,0,0,0,0,0,0,0,0,0,0,0,0,0,0,0,0,0,0,0,0,0,0,0,0,0,0,0,0,0,0,0,0,0,0,0,0,0,0,0,0,0,0,0,0,0,0,0,0,0,0,0,0,0,0,0,0,0,0,0,0,0,0,0,0,0,0,0,0,0,0,0,0,0,0,0,0,0,0,0,0,0,0,0,0,0,0,0,0,0,0,0],"sum_hessian":[4.8374105E4,2.5487412E4,2.2886691E4,1.3092668E4,1.2394744E4,1.591367E4,6.9730215E3,1.0892294E4,2.2003738E3,1.0870946E4,1.5237975E3,9.784948E3,6.128722E3,5.392807E3,1.5802141E3,4.835306E3,6.0569883E3,1.564264E3,6.361097E2,8.447778E3,2.4231682E3,7.0141284E2,8.2238464E2,4.9681855E3,4.8167627E3,3.322293E3,2.8064292E3,4.906286E3,4.8652142E2,1.3498446E3,2.3036952E2,3.8477664E3,9.875395E2,3.6181921E3,2.4387961E3,1.3351686E3,2.2909547E2,1.920752E2,4.4403445E2,5.7026167E3,2.7451619E3,1.8792928E3,5.438753E2,5.581855E2,1.4322734E2,2.874659E2,5.349187E2,1.4869357E3,3.4812502E3,3.6966055E3,1.120157E3,2.6837188E3,6.385743E2,5.335696E2,2.2728596E3,2.7290005E3,2.1772854E3,2.4461845E2,2.4190297E2,5.9011383E2,7.597307E2,2.195294E2,1.0840127E1,3.1659612E3,6.8180524E2,9.208589E2,6.668055E1,3.5323875E3,8.58048E1,2.2263554E2,2.2161606E3,1.3266239E3,8.544676E0,1.9644435E2,3.265113E1,3.955497E1,1.5252023E2,1.722537E2,2.7178076E2,5.343286E3,3.593303E2,1.8976086E3,8.475532E2,1.4544037E3,4.248891E2,4.8836478E2,5.5510517E1,3.9862537E2,1.5956012E2,7.490801E1,6.831932E1,2.0033702E2,8.7128876E1,7.758074E1,4.5733798E2,3.583944E2,1.1285411E3,3.161649E3,3.196011E2,2.0859683E3,1.6106371E3,1.0051449E3,1.1501207E2,5.78678E2,2.1050408E3,2.5769284E2,3.808814E2,4.8094913E2,5.2620487E1,6.6260596E2,1.6102537E3,2.6608635E3,6.813683E1,4.7153293E2,1.7057526E3,7.2753975E1,1.7186449E2,1.5438365E1,2.264646E2,4.1135315E2,1.7876068E2,4.332012E2,3.265295E2,2.0844463E2,1.1084768E1,3.707634E0,7.132493E0],"tree_param":{"num_deleted":"0","num_feature":"2048","num_nodes":"127","size_leaf_vector":"1"}},{"base_weights":[-7.0970966E-3,-2.796915E-1,5.334335E-1,7.385058E-2,-4.494266E-1,8.594195E-1,1.8141027E-1,5.6105983E-1,-3.400942E-2,-4.7525877E-1,4.6503752E-1,1.0620955E0,4.9504662E-1,3.2774752E-1,-1.8432467E-1,8.6205995E-1,1.692824E-1,1.03761464E-1,-2.9552597E-1,-2.3824227E-1,-5.278983E-1,-1.8692939E-1,9.312027E-1,1.1087039E0,3.75418E-1,2.739819E-1,8.901586E-1,4.4440874E-1,-3.9309863E-2,-2.57361E-1,5.623175E-1,9.2891914E-1,-1.5421401E-1,7.7751162E-3,1.2035705E0,2.5992152E-1,-6.052319E-2,-3.2555616E-1,5.476159E-1,7.315111E-2,-3.060834E-1,-5.346252E-1,5.6333697E-1,-3.3734483E-1,7.8798354E-1,1.0876186E0,-2.1426676E-1,1.1345575E0,5.549731E-1,2.1226208E-1,1.1713581E0,4.5192325E-1,-1.476841E-1,1.080583E0,5.582758E-1,7.2238666E-1,2.9183492E-1,-7.2757356E-2,1.0424385E0,4.9384136E-2,-4.0969056E-1,1.1257575E0,2.82581E-1,3.6604908E-1,2.2724335E-1,8.648643E-2,-1.9547157E-1,7.828762E-2,-1.2460813E-1,-1.0032303E-1,4.121905E-1,1.3382898E-1,1.2107177E-2,-2.965963E-2,2.788905E-1,-3.2508645E-2,-1.3544466E-1,4.3643504E-1,3.5728555E-2,-2.6282582E-3,3.9962217E-1,-5.1004123E-2,-1.22979656E-1,-1.6397664E-1,-2.7628513E-2,1.6354261E-2,4.642401E-1,-1.1955384E-1,4.094743E-1,3.761234E-1,-1.7723365E-1,1.3862246E-1,3.7136915E-1,2.9457733E-1,-1.6277695E-1,3.456374E-1,1.6833694E-1,-1.2874635E-2,3.5430077E-1,1.4961077E-1,-1.3756144E-1,-1.6377924E-1,3.8803455E-1,1.7718877E-1,3.0866556E-2,-8.0327906E-2,1.5565394E-1,3.4107092E-1,1.3648012E-1,1.1630616E-1,3.1155193E-1,2.6540592E-1,1.400716E-1,5.2651953E-2,1.633194E-1,6.797927E-2,-4.949256E-2,-7.888493E-2,4.1106197E-1,5.193057E-2,-1.6383603E-1,-1.2693383E-1,3.2962692E-1,-8.635763E-2,3.9660436E-1,1.7715415E-1,-1.1749634E-1],"categories":[],"categories_nodes":[],"categories_segments":[],"categories_sizes":[],"default_left":[0,0,0,0,0,0,0,0,0,0,0,0,0,0,0,0,0,0,0,0,0,0,0,0,0,0,0,0,0,0,0,0,0,0,0,0,0,0,0,0,0,0,0,0,0,0,0,0,0,0,0,0,0,0,0,0,0,0,0,0,0,0,0,0,0,0,0,0,0,0,0,0,0,0,0,0,0,0,0,0,0,0,0,0,0,0,0,0,0,0,0,0,0,0,0,0,0,0,0,0,0,0,0,0,0,0,0,0,0,0,0,0,0,0,0,0,0,0,0,0,0,0,0,0,0,0,0],"id":7,"left_children":[1,3,5,7,9,11,13,15,17,19,21,23,25,27,29,31,33,35,37,39,41,43,45,47,49,51,53,55,57,59,61,63,65,67,69,71,73,75,77,79,81,83,85,87,89,91,93,95,97,99,101,103,105,107,109,111,113,115,117,119,121,123,125,-1,-1,-1,-1,-1,-1,-1,-1,-1,-1,-1,-1,-1,-1,-1,-1,-1,-1,-1,-1,-1,-1,-1,-1,-1,-1,-1,-1,-1,-1,-1,-1,-1,-1,-1,-1,-1,-1,-1,-1,-1,-1,-1,-1,-1,-1,-1,-1,-1,-1,-1,-1,-1,-1,-1,-1,-1,-1,-1,-1,-1,-1,-1,-1],"loss_changes":[7.10718E3,1.9241687E3,1.8554688E3,5.4662537E2,5.1197656E2,6.1947217E2,4.162349E2,2.2219055E2,3.068985E2,2.6274268E2,1.8121022E2,1.722124E2,2.620174E2,2.378537E2,1.21359146E2,7.2574036E1,1.3703793E2,1.4314647E2,7.459387E1,8.094801E1,1.2684863E2,3.6805008E1,6.2492554E1,7.167285E1,4.4469284E1,1.4463757E2,6.744812E1,1.7854382E2,4.8575516E1,9.4661545E1,3.0948639E1,4.9023438E1,1.485812E1,7.623774E1,2.9497116E1,1.1691086E2,1.0334295E2,7.75874E1,3.9265354E1,7.076166E1,4.4380554E1,9.0663086E1,5.3048477E1,2.3093765E1,2.2320995E1,2.8184814E1,1.7257395E1,4.795117E1,8.510771E1,5.5372437E1,1.2941574E1,6.555069E1,4.5962814E1,2.3554321E1,3.192762E1,6.1488464E1,7.990173E1,3.5957474E1,1.7589764E1,4.9675262E1,2.7868073E1,1.8546432E1,2.8030663E1,0E0,0E0,0E0,0E0,0E0,0E0,0E0,0E0,0E0,0E0,0E0,0E0,0E0,0E0,0E0,0E0,0E0,0E0,0E0,0E0,0E0,0E0,0E0,0E0,0E0,0E0,0E0,0E0,0E0,0E0,0E0,0E0,0E0,0E0,0E0,0E0,0E0,0E0,0E0,0E0,0E0,0E0,0E0,0E0,0E0,0E0,0E0,0E0,0E0,0E0,0E0,0E0,0E0,0E0,0E0,0E0,0E0,0E0,0E0,0E0,0E0,0E0,0E0,0E0],"parents":[2147483647,0,0,1,1,2,2,3,3,4,4,5,5,6,6,7,7,8,8,9,9,10,10,11,11,12,12,13,13,14,14,15,15,16,16,17,17,18,18,19,19,20,20,21,21,22,22,23,23,24,24,25,25,26,26,27,27,28,28,29,29,30,30,31,31,32,32,33,33,34,34,35,35,36,36,37,37,38,38,39,39,40,40,41,41,42,42,43,43,44,44,45,45,46,46,47,47,48,48,49,49,50,50,51,51,52,52,53,53,54,54,55,55,56,56,57,57,58,58,59,59,60,60,61,61,62,62],"right_children":[2,4,6,8,10,12,14,16,18,20,22,24,26,28,30,32,34,36,38,40,42,44,46,48,50,52,54,56,58,60,62,64,66,68,70,72,74,76,78,80,82,84,86,88,90,92,94,96,98,100,102,104,106,108,110,112,114,116,118,120,122,124,126,-1,-1,-1,-1,-1,-1,-1,-1,-1,-1,-1,-1,-1,-1,-1,-1,-1,-1,-1,-1,-1,-1,-1,-1,-1,-1,-1,-1,-1,-1,-1,-1,-1,-1,-1,-1,-1,-1,-1,-1,-1,-1,-1,-1,-1,-1,-1,-1,-1,-1,-1,-1,-1,-1,-1,-1,-1,-1,-1,-1,-1,-1,-1,-1],"split_conditions":[4.5147333E-1,3.9709675E-1,2.2066891E-1,7.3911436E-2,1.3777808E0,4.012595E-1,1.0614201E-1,3.3452343E-2,5.5507187E-2,9.544042E-2,1.05859846E-1,2.2519162E-1,1.5919596E0,1.8123697E0,1.5451392E0,8.457044E-1,5.958559E-1,8.176378E-1,1.0530288E0,1.7554258E-1,1.6504943E0,1.2226689E0,2.1918697E0,9.9627726E-2,1.6413234E0,2.0718224E-1,1.9735773E0,2.8987641E0,2.7781565E0,3.8571775E-2,3.5545492E-1,1.5744592E-1,1.7276462E-2,6.4288306E-1,4.583326E-1,1.0496461E-2,1.9691192E0,1.1705491E-1,1.2987348E-1,2.7372496E0,2.9718925E-3,1.4867522E0,8.396228E-1,2.0504668E0,8.60828E-1,8.532411E-2,7.4092513E-1,1.9537969E0,9.12901E-1,1.03812784E-1,1.7087239E-1,8.3345614E-2,1.8597288E0,1.4983162E-1,1.1301035E0,9.302447E-1,1.0195233E0,1.78235E-1,2.8896675E0,1.0734626E-1,1.8805503E0,2.9628458E0,1.3004518E-1,3.6604908E-1,2.2724335E-1,8.648643E-2,-1.9547157E-1,7.828762E-2,-1.2460813E-1,-1.0032303E-1,4.121905E-1,1.3382898E-1,1.2107177E-2,-2.965963E-2,2.788905E-1,-3.2508645E-2,-1.3544466E-1,4.3643504E-1,3.5728555E-2,-2.6282582E-3,3.9962217E-1,-5.1004123E-2,-1.22979656E-1,-1.6397664E-1,-2.7628513E-2,1.6354261E-2,4.642401E-1,-1.1955384E-1,4.094743E-1,3.761234E-1,-1.7723365E-1,1.3862246E-1,3.7136915E-1,2.9457733E-1,-1.6277695E-1,3.456374E-1,1.6833694E-1,-1.2874635E-2,3.5430077E-1,1.4961077E-1,-1.3756144E-1,-1.6377924E-1,3.8803455E-1,1.7718877E-1,3.0866556E-2,-8.0327906E-2,1.5565394E-1,3.4107092E-1,1.3648012E-1,1.1630616E-1,3.1155193E-1,2.6540592E-1,1.400716E-1,5.2651953E-2,1.633194E-1,6.797927E-2,-4.949256E-2,-7.888493E-2,4.1106197E-1,5.193057E-2,-1.6383603E-1,-1.2693383E-1,3.2962692E-1,-8.635763E-2,3.9660436E-1,1.7715415E-1,-1.1749634E-1],"split_indices":[115,1052,888,888,1393,568,1882,1882,1882,913,93,519,1393,731,1393,1519,70,1041,1891,888,1188,500,1227,1870,1393,1882,288,38,1214,758,568,809,1405,1310,1618,316,627,810,951,1455,632,966,50,1150,731,640,462,1716,1393,1310,1047,120,812,1967,1188,731,1342,207,554,925,93,1892,1131,0,0,0,0,0,0,0,0,0,0,0,0,0,0,0,0,0,0,0,0,0,0,0,0,0,0,0,0,0,0,0,0,0,0,0,0,0,0,0,0,0,0,0,0,0,0,0,0,0,0,0,0,0,0,0,0,0,0,0,0,0,0,0,0],"split_type":[0,0,0,0,0,0,0,0,0,0,0,0,0,0,0,0,0,0,0,0,0,0,0,0,0,0,0,0,0,0,0,0,0,0,0,0,0,0,0,0,0,0,0,0,0,0,0,0,0,0,0,0,0,0,0,0,0,0,0,0,0,0,0,0,0,0,0,0,0,0,0,0,0,0,0,0,0,0,0,0,0,0,0,0,0,0,0,0,0,0,0,0,0,0,0,0,0,0,0,0,0,0,0,0,0,0,0,0,0,0,0,0,0,0,0,0,0,0,0,0,0,0,0,0,0,0,0],"sum_hessian":[4.823275E4,3.2063383E4,1.6169366E4,1.0400565E4,2.1662818E4,8.394406E3,7.77496E3,1.8844054E3,8.516159E3,2.1068156E4,5.946619E2,5.3928267E3,3.0015796E3,5.5531475E3,2.2218125E3,1.0649844E3,8.194211E2,5.578123E3,2.9380366E3,3.8297463E3,1.723841E4,2.4817276E2,3.464892E2,5.049478E3,3.4334866E2,1.9257936E3,1.075786E3,4.2137026E3,1.3394448E3,2.0244377E3,1.9737465E2,9.9932605E2,6.565827E1,7.096194E2,1.09801735E2,2.8594773E3,2.7186458E3,2.8375842E3,1.004524E2,6.850882E2,3.144658E3,1.7133303E4,1.0510702E2,2.1556766E2,3.2605103E1,3.0490445E2,4.1584747E1,4.8232324E3,2.2624548E2,2.8599136E2,5.7357304E1,1.3542386E3,5.71555E2,6.821391E2,3.9364694E2,1.4918787E3,2.7218242E3,1.3001763E3,3.926851E1,6.7197046E2,1.3524673E3,6.447864E1,1.3289601E2,3.6801874E2,6.313073E2,3.4967686E1,3.0690586E1,4.4420944E2,2.654099E2,1.0855882E1,9.8945854E1,1.5468367E3,1.3126405E3,2.6181619E3,1.00483864E2,1.0420842E3,1.7955E3,3.1459187E1,6.899321E1,6.4416833E2,4.0919857E1,1.3623074E3,1.7823506E3,1.6682076E4,4.5122684E2,6.998052E1,3.5126495E1,2.0882959E2,6.7380643E0,2.443976E1,8.165343E0,5.984996E1,2.4505449E2,8.527063E0,3.3057682E1,4.678886E3,1.4434624E2,1.1620014E2,1.1004534E2,2.0059235E2,8.539901E1,3.5767124E0,5.378059E1,9.6861865E2,3.8562E2,4.8481396E2,8.6741035E1,6.250554E2,5.7083706E1,2.9180026E2,1.0184668E2,9.108071E2,5.810716E2,1.8646685E3,8.571557E2,3.0585645E2,9.943198E2,7.9207225E0,3.1347788E1,5.56968E2,1.15002426E2,1.3412523E3,1.1214972E1,7.8035846E0,5.6675053E1,9.131522E1,4.158078E1],"tree_param":{"num_deleted":"0","num_feature":"2048","num_nodes":"127","size_leaf_vector":"1"}},{"base_weights":[3.4712742E-3,-7.1580544E-2,5.226192E-1,1.1653699E-2,-3.0117893E-1,1.0236301E-1,6.256476E-1,1.0881826E-1,-1.4667463E-1,-2.0419869E-1,-4.737206E-1,2.6707667E-1,-3.2717466E-2,2.2855987E-1,6.775695E-1,-4.8609845E-2,2.280265E-1,-2.0048979E-1,3.61736E-2,-2.4520443E-1,5.602504E-2,-3.6333796E-1,-5.397152E-1,-3.660209E-2,5.1229507E-1,-6.305012E-2,7.605392E-1,3.4864894E-1,-2.4601975E-1,4.9646512E-1,7.711662E-1,-1.1302481E-1,1.7873473E-1,1.416811E-1,4.1744196E-1,-2.9301834E-1,-1.0338976E-1,1.7429756E-1,-1.2493114E-1,-6.0182203E-2,-2.854695E-1,2.5437015E-1,-1.4258067E-1,-3.9690292E-1,2.2159252E-2,-5.572177E-1,-3.4749365E-1,-9.141755E-2,1.1704626E0,7.5382274E-1,1.7712215E-1,-1.2617521E-1,2.6044258E-1,1.3650266E0,-5.3702906E-2,1.9593838E-1,6.633114E-1,-2.9791725E-1,3.463298E-1,4.1512433E-1,8.10042E-1,7.8677404E-1,6.357831E-2,2.855297E-2,-5.440042E-2,9.6257985E-2,-7.425397E-3,6.2245745E-2,-2.451621E-2,1.8969046E-1,8.970517E-2,-1.4529686E-1,-7.840689E-2,-4.560446E-2,6.276114E-2,1.5671647E-1,2.0958299E-2,-6.340004E-2,5.197745E-2,3.9074097E-2,-1.0132191E-1,-9.029181E-2,2.808753E-2,6.5430194E-2,4.0803325E-1,-5.1023137E-2,3.3326942E-1,-1.20733134E-1,3.2259795E-1,2.2294052E-1,-3.63993E-2,-1.67619E-1,2.0009103E-1,-1.2763242E-1,3.3839718E-2,-4.237288E-2,2.4570356E-1,4.1992077E-1,-1.1352482E-1,3.1834683E-1,1.0858701E-1,1.7517579E-1,-2.9362548E-2,6.389479E-2,-5.3439084E-2,4.1605434E-1,3.8461078E-2,-7.4092604E-2,5.103755E-1,3.3609483E-1,-1.3575146E-1,1.1617994E-1,-3.2573972E-2,3.0194855E-1,1.0517551E-1,-1.0224233E-1,2.9755574E-1,8.060005E-2,1.8788843E-1,2.7787152E-1,7.3394224E-2,2.5280926E-1,1.810116E-1,2.7085462E-1,-7.536644E-2],"categories":[],"categories_nodes":[],"categories_segments":[],"categories_sizes":[],"default_left":[0,0,0,0,0,0,0,0,0,0,0,0,0,0,0,0,0,0,0,0,0,0,0,0,0,0,0,0,0,0,0,0,0,0,0,0,0,0,0,0,0,0,0,0,0,0,0,0,0,0,0,0,0,0,0,0,0,0,0,0,0,0,0,0,0,0,0,0,0,0,0,0,0,0,0,0,0,0,0,0,0,0,0,0,0,0,0,0,0,0,0,0,0,0,0,0,0,0,0,0,0,0,0,0,0,0,0,0,0,0,0,0,0,0,0,0,0,0,0,0,0,0,0,0,0],"id":8,"left_children":[1,3,5,7,9,11,13,15,17,19,21,23,25,27,29,31,33,35,37,39,41,43,45,47,49,51,53,55,57,59,61,63,65,67,69,71,73,75,77,79,81,83,85,87,89,91,93,95,97,99,101,103,105,107,109,111,113,115,-1,117,119,121,123,-1,-1,-1,-1,-1,-1,-1,-1,-1,-1,-1,-1,-1,-1,-1,-1,-1,-1,-1,-1,-1,-1,-1,-1,-1,-1,-1,-1,-1,-1,-1,-1,-1,-1,-1,-1,-1,-1,-1,-1,-1,-1,-1,-1,-1,-1,-1,-1,-1,-1,-1,-1,-1,-1,-1,-1,-1,-1,-1,-1,-1,-1],"loss_changes":[1.8511019E3,7.932495E2,2.5975916E2,4.686935E2,1.8470483E2,2.6322765E1,9.9203E1,3.5432574E2,1.140186E2,7.547568E1,2.8746948E1,3.970965E1,1.5704312E1,3.1931206E1,7.184985E1,1.1917541E2,1.7566656E2,8.039911E1,5.8668427E1,4.5497498E1,3.799083E1,1.9284088E1,8.165039E0,1.592378E1,2.374356E1,1.2849543E1,1.1906238E1,2.1317963E1,8.587742E0,3.676895E1,3.095691E1,9.019732E1,5.1971954E1,1.085336E2,8.539996E1,2.7635223E1,6.644983E1,5.1562782E1,3.139523E1,5.7824448E1,2.9515228E1,1.905083E1,1.6804184E1,1.1611832E1,1.253181E1,4.585449E0,7.5824795E0,1.05305E1,4.242978E0,2.022374E1,1.40221E1,9.303637E0,1.5135344E1,7.918953E0,5.753342E0,1.7633064E1,1.5254074E1,6.4324017E0,0E0,3.5619568E1,1.9389023E1,2.7665161E1,1.6522985E1,0E0,0E0,0E0,0E0,0E0,0E0,0E0,0E0,0E0,0E0,0E0,0E0,0E0,0E0,0E0,0E0,0E0,0E0,0E0,0E0,0E0,0E0,0E0,0E0,0E0,0E0,0E0,0E0,0E0,0E0,0E0,0E0,0E0,0E0,0E0,0E0,0E0,0E0,0E0,0E0,0E0,0E0,0E0,0E0,0E0,0E0,0E0,0E0,0E0,0E0,0E0,0E0,0E0,0E0,0E0,0E0,0E0,0E0,0E0,0E0,0E0,0E0],"parents":[2147483647,0,0,1,1,2,2,3,3,4,4,5,5,6,6,7,7,8,8,9,9,10,10,11,11,12,12,13,13,14,14,15,15,16,16,17,17,18,18,19,19,20,20,21,21,22,22,23,23,24,24,25,25,26,26,27,27,28,28,29,29,30,30,31,31,32,32,33,33,34,34,35,35,36,36,37,37,38,38,39,39,40,40,41,41,42,42,43,43,44,44,45,45,46,46,47,47,48,48,49,49,50,50,51,51,52,52,53,53,54,54,55,55,56,56,57,57,59,59,60,60,61,61,62,62],"right_children":[2,4,6,8,10,12,14,16,18,20,22,24,26,28,30,32,34,36,38,40,42,44,46,48,50,52,54,56,58,60,62,64,66,68,70,72,74,76,78,80,82,84,86,88,90,92,94,96,98,100,102,104,106,108,110,112,114,116,-1,118,120,122,124,-1,-1,-1,-1,-1,-1,-1,-1,-1,-1,-1,-1,-1,-1,-1,-1,-1,-1,-1,-1,-1,-1,-1,-1,-1,-1,-1,-1,-1,-1,-1,-1,-1,-1,-1,-1,-1,-1,-1,-1,-1,-1,-1,-1,-1,-1,-1,-1,-1,-1,-1,-1,-1,-1,-1,-1,-1,-1,-1,-1,-1,-1],"split_conditions":[4.0951258E-1,4.3931857E-1,1.3974251E-1,1.7088883E0,1.7809983E0,1.3764642E0,2.7662385E0,3.763629E-1,4.7003597E-2,4.3120566E-1,3.7657005E-1,3.060086E0,4.632261E-1,4.6843913E-1,3.093002E-3,1.4622445E0,2.3122225E0,1.173329E0,1.0785498E-1,3.4878192E0,1.5615635E0,2.5243738E-1,1.2597272E0,1.2305822E0,1.1351712E-2,7.6318616E-1,2.722494E-1,2.1988724E-1,6.651153E-1,1.1880802E0,1.6617644E0,4.175896E-1,3.6703247E-1,7.1178466E-1,3.7002654E0,1.669445E-1,1.2476673E0,4.223789E0,1.5553338E-2,4.5574823E-1,7.36596E0,1.5713525E0,4.7364065E-1,1.3521087E0,4.6007296E-1,2.7720346E0,7.961887E-2,3.4370586E-1,1.8453323E0,2.1826925E-2,2.2789469E0,2.5369818E0,1.5888052E0,3.8454484E-4,3.0568805E-1,2.82822E-1,3.731915E-2,6.716052E-1,3.463298E-1,4.7274753E-3,4.775478E-1,1.6647038E0,1.6094988E-2,2.855297E-2,-5.440042E-2,9.6257985E-2,-7.425397E-3,6.2245745E-2,-2.451621E-2,1.8969046E-1,8.970517E-2,-1.4529686E-1,-7.840689E-2,-4.560446E-2,6.276114E-2,1.5671647E-1,2.0958299E-2,-6.340004E-2,5.197745E-2,3.9074097E-2,-1.0132191E-1,-9.029181E-2,2.808753E-2,6.5430194E-2,4.0803325E-1,-5.1023137E-2,3.3326942E-1,-1.20733134E-1,3.2259795E-1,2.2294052E-1,-3.63993E-2,-1.67619E-1,2.0009103E-1,-1.2763242E-1,3.3839718E-2,-4.237288E-2,2.4570356E-1,4.1992077E-1,-1.1352482E-1,3.1834683E-1,1.0858701E-1,1.7517579E-1,-2.9362548E-2,6.389479E-2,-5.3439084E-2,4.1605434E-1,3.8461078E-2,-7.4092604E-2,5.103755E-1,3.3609483E-1,-1.3575146E-1,1.1617994E-1,-3.2573972E-2,3.0194855E-1,1.0517551E-1,-1.0224233E-1,2.9755574E-1,8.060005E-2,1.8788843E-1,2.7787152E-1,7.3394224E-2,2.5280926E-1,1.810116E-1,2.7085462E-1,-7.536644E-2],"split_indices":[313,1268,227,455,1187,1041,2002,1052,402,316,890,2002,1948,1268,1016,1287,1094,1094,960,435,1668,607,909,983,830,395,104,1725,788,1287,180,1723,823,1125,53,1052,1007,53,1105,32,561,1303,1447,1697,1594,1130,1759,140,780,439,719,435,202,584,1856,721,917,882,0,275,270,948,177,0,0,0,0,0,0,0,0,0,0,0,0,0,0,0,0,0,0,0,0,0,0,0,0,0,0,0,0,0,0,0,0,0,0,0,0,0,0,0,0,0,0,0,0,0,0,0,0,0,0,0,0,0,0,0,0,0,0,0,0,0,0],"split_type":[0,0,0,0,0,0,0,0,0,0,0,0,0,0,0,0,0,0,0,0,0,0,0,0,0,0,0,0,0,0,0,0,0,0,0,0,0,0,0,0,0,0,0,0,0,0,0,0,0,0,0,0,0,0,0,0,0,0,0,0,0,0,0,0,0,0,0,0,0,0,0,0,0,0,0,0,0,0,0,0,0,0,0,0,0,0,0,0,0,0,0,0,0,0,0,0,0,0,0,0,0,0,0,0,0,0,0,0,0,0,0,0,0,0,0,0,0,0,0,0,0,0,0,0,0],"sum_hessian":[4.750727E4,4.1507504E4,5.999766E3,3.046445E4,1.1043055E4,1.1816742E3,4.818092E3,1.887894E4,1.158551E4,7.0709053E3,3.9721494E3,5.319954E2,6.496788E2,5.577719E2,4.2603203E3,8.1355747E3,1.0743365E4,8.950993E3,2.6345173E3,6.108407E3,9.6249774E2,1.4886818E3,2.4834675E3,2.3804764E2,2.9394778E2,6.266378E2,2.3040947E1,4.4534564E2,1.1242626E2,1.453732E3,2.806588E3,6.3397866E3,1.7957885E3,7.380636E3,3.3627288E3,4.5823564E3,4.3686367E3,1.41838E3,1.2161372E3,1.0921871E3,5.01622E3,4.8142435E2,4.810734E2,1.369418E3,1.1926375E2,2.274469E3,2.0899843E2,2.2859108E2,9.456558E0,1.7011372E2,1.2383407E2,5.248338E2,1.0180402E2,1.2835516E1,1.0205431E1,3.0092487E2,1.4442078E2,1.0916802E2,3.2582412E0,1.1561537E3,2.975785E2,2.7459072E3,6.068071E1,1.5660969E3,4.7736895E3,1.0569695E3,7.3881903E2,5.7013354E3,1.6793007E3,1.1933248E3,2.1694038E3,6.486813E2,3.9336753E3,3.7810012E3,5.8763525E2,3.2641748E2,1.0919625E3,9.431458E2,2.729914E2,6.480783E2,4.4410876E2,4.8193384E3,1.968822E2,4.6729382E2,1.4130508E1,4.715928E2,9.4805975E0,1.3650073E3,4.410683E0,1.910259E1,1.00161156E2,2.2722056E3,2.2634597E0,1.7879611E2,3.0202316E1,2.1753105E2,1.1060031E1,8.321114E0,1.1354445E0,9.438295E1,7.573077E1,4.9494556E1,7.4339516E1,6.9306694E1,4.555271E2,9.699209E0,9.210482E1,2.260964E0,1.0574552E1,2.1289337E0,8.076498E0,1.8464262E2,1.16282234E2,6.7799576E1,7.662121E1,1.0636662E2,2.8013961E0,6.8402167E2,4.7213193E2,2.4631847E2,5.1260017E1,2.1015142E3,6.443932E2,1.6042547E1,4.463816E1],"tree_param":{"num_deleted":"0","num_feature":"2048","num_nodes":"125","size_leaf_vector":"1"}},{"base_weights":[5.7694744E-3,-3.262056E-1,8.477135E-2,-4.637146E-1,-1.2065954E-1,2.623831E-2,2.7849302E-1,-5.1521003E-1,-3.4248778E-1,-2.4116181E-1,5.0724138E-2,-9.7590365E-2,1.06222086E-1,1.276052E-1,3.753144E-1,-5.1969045E-1,7.690297E-1,-3.7180835E-1,3.542571E-1,-1.6788337E-1,-4.8545733E-1,2.0062868E-1,-1.334346E-1,-1.751815E-1,8.632721E-2,1.0934705E-2,2.2320606E-1,6.9761015E-2,4.4761586E-1,4.6180877E-1,1.4330831E-1,-5.2279305E-1,9.698395E-1,-1.5212567E-1,1.5636001E0,-3.8670963E-1,6.5496904E-1,1.0970314E0,-1.6567375E-1,-3.5031667E-1,5.2313916E-3,-5.0057054E-1,3.5544008E-1,-1.2193428E-1,3.1810942E-1,-1.8661985E-1,5.525129E-1,-2.1292773E-1,1.5204957E-1,-8.592162E-2,2.5034085E-1,-4.8853718E-2,1.5616575E-1,1.3294396E-1,3.6808217E-1,-1.9653536E-2,2.3573193E-1,5.1236826E-1,-3.4642723E-1,3.694445E-1,6.6442853E-1,-1.1145663E-1,3.0085617E-1,-1.5781917E-1,2.4141261E-1,3.712737E-1,-1.0063204E-1,5.415047E-1,1.330288E-1,-1.2234234E-1,8.95271E-2,3.9699718E-1,-1.6999325E-1,4.0414628E-1,-1.4860353E-1,3.909302E-1,-1.20830126E-1,-1.1165611E-1,2.6801944E-1,-6.516879E-2,4.972815E-2,-1.5474261E-1,2.5735006E-1,-8.2821585E-2,1.4381951E-1,1.2208855E-1,-6.6990666E-2,-7.402822E-2,1.264257E-1,3.4545466E-1,-5.1788967E-2,-9.816052E-2,-3.8429216E-2,3.297793E-3,1.9759406E-1,-3.540846E-2,1.6659924E-1,1.6754748E-2,1.285673E-1,-4.261479E-2,8.439751E-3,8.1962015E-4,9.477947E-2,1.7554948E-2,1.14323996E-1,9.000166E-2,1.9281851E-1,-2.488341E-2,1.0153293E-1,4.8799984E-2,2.3620571E-1,1.7018078E-1,-1.1941636E-1,-1.5832013E-1,3.462356E-1,1.8069094E-1,6.614027E-2,1.3240333E-1,2.6203153E-1,-8.54105E-2,7.7638306E-2,1.5079446E-1,3.0637162E-2],"categories":[],"categories_nodes":[],"categories_segments":[],"categories_sizes":[],"default_left":[0,0,0,0,0,0,0,0,0,0,0,0,0,0,0,0,0,0,0,0,0,0,0,0,0,0,0,0,0,0,0,0,0,0,0,0,0,0,0,0,0,0,0,0,0,0,0,0,0,0,0,0,0,0,0,0,0,0,0,0,0,0,0,0,0,0,0,0,0,0,0,0,0,0,0,0,0,0,0,0,0,0,0,0,0,0,0,0,0,0,0,0,0,0,0,0,0,0,0,0,0,0,0,0,0,0,0,0,0,0,0,0,0,0,0,0,0,0,0,0,0,0,0],"id":9,"left_children":[1,3,5,7,9,11,13,15,17,19,21,23,25,27,29,31,33,35,37,39,41,43,45,47,49,51,53,55,57,59,61,63,65,-1,67,69,71,73,75,77,79,81,-1,83,85,87,89,91,93,95,97,99,101,103,105,107,109,111,113,115,117,119,121,-1,-1,-1,-1,-1,-1,-1,-1,-1,-1,-1,-1,-1,-1,-1,-1,-1,-1,-1,-1,-1,-1,-1,-1,-1,-1,-1,-1,-1,-1,-1,-1,-1,-1,-1,-1,-1,-1,-1,-1,-1,-1,-1,-1,-1,-1,-1,-1,-1,-1,-1,-1,-1,-1,-1,-1,-1,-1,-1,-1],"loss_changes":[1.2525776E3,2.5943494E2,4.3744266E2,3.416089E1,7.6040184E1,2.9345575E2,1.3072906E2,2.2601685E1,3.369429E1,3.861676E1,4.2005936E1,1.6594714E2,2.006609E2,6.476463E1,1.0934552E2,1.8279907E1,1.4803987E1,2.43824E1,2.600122E1,5.256817E1,1.3171036E1,3.1820564E1,2.5019024E1,1.0104549E2,9.750731E1,8.615933E1,1.05620544E2,4.4017143E1,2.7720306E1,7.40741E1,5.952185E1,1.7089722E1,3.3311758E0,0E0,1.5687275E0,2.2600845E1,1.947221E1,1.1684036E1,1.4522778E1,2.2376488E1,3.0569962E1,1.067865E1,0E0,2.0952854E1,2.9678387E1,2.33087E1,2.165442E1,7.1040375E1,6.0473064E1,3.473298E1,6.1252777E1,5.043609E1,7.093235E1,9.1954994E1,5.7793E1,4.3732258E1,4.172544E1,2.5002258E1,1.1759844E1,9.4571625E1,5.7533386E1,3.6446873E1,3.668477E1,0E0,0E0,0E0,0E0,0E0,0E0,0E0,0E0,0E0,0E0,0E0,0E0,0E0,0E0,0E0,0E0,0E0,0E0,0E0,0E0,0E0,0E0,0E0,0E0,0E0,0E0,0E0,0E0,0E0,0E0,0E0,0E0,0E0,0E0,0E0,0E0,0E0,0E0,0E0,0E0,0E0,0E0,0E0,0E0,0E0,0E0,0E0,0E0,0E0,0E0,0E0,0E0,0E0,0E0,0E0,0E0,0E0,0E0,0E0,0E0],"parents":[2147483647,0,0,1,1,2,2,3,3,4,4,5,5,6,6,7,7,8,8,9,9,10,10,11,11,12,12,13,13,14,14,15,15,16,16,17,17,18,18,19,19,20,20,21,21,22,22,23,23,24,24,25,25,26,26,27,27,28,28,29,29,30,30,31,31,32,32,34,34,35,35,36,36,37,37,38,38,39,39,40,40,41,41,43,43,44,44,45,45,46,46,47,47,48,48,49,49,50,50,51,51,52,52,53,53,54,54,55,55,56,56,57,57,58,58,59,59,60,60,61,61,62,62],"right_children":[2,4,6,8,10,12,14,16,18,20,22,24,26,28,30,32,34,36,38,40,42,44,46,48,50,52,54,56,58,60,62,64,66,-1,68,70,72,74,76,78,80,82,-1,84,86,88,90,92,94,96,98,100,102,104,106,108,110,112,114,116,118,120,122,-1,-1,-1,-1,-1,-1,-1,-1,-1,-1,-1,-1,-1,-1,-1,-1,-1,-1,-1,-1,-1,-1,-1,-1,-1,-1,-1,-1,-1,-1,-1,-1,-1,-1,-1,-1,-1,-1,-1,-1,-1,-1,-1,-1,-1,-1,-1,-1,-1,-1,-1,-1,-1,-1,-1,-1,-1,-1,-1,-1],"split_conditions":[2.4475613E0,1.8345801E-2,5.54226E-1,1.8168383E0,3.4599042E-1,4.3738594E0,2.5488381E0,1.6550343E0,4.340582E0,9.419231E-1,2.5040496E-3,7.558527E-1,4.012595E-1,2.3302205E0,6.781547E-1,1.8440418E0,4.484236E-1,1.8683506E0,5.7776E-4,1.4420968E-1,3.4120462E0,5.846806E-1,3.10931E0,1.7531768E0,1.9782472E-1,7.624937E-2,2.8144586E-1,5.423678E0,3.449791E-1,2.6152008E0,1.0031893E-1,2.6354125E0,7.307678E-2,-1.5212567E-1,5.785313E-2,4.821835E-1,1.4687259E-2,2.2816727E-1,4.755064E-4,7.077609E-1,2.8491026E-1,1.3485292E0,3.5544008E-1,2.0892987E0,5.94852E-1,6.31722E-1,1.9847848E-2,4.112818E0,2.990965E0,1.2537278E0,1.8453717E-1,3.944049E-2,3.201509E-2,2.2808368E0,3.135145E-1,2.202064E0,8.044475E-1,6.56115E-1,1.358502E0,7.260422E-2,9.2663914E-1,1.9308385E0,8.197385E-2,-1.5781917E-1,2.4141261E-1,3.712737E-1,-1.0063204E-1,5.415047E-1,1.330288E-1,-1.2234234E-1,8.95271E-2,3.9699718E-1,-1.6999325E-1,4.0414628E-1,-1.4860353E-1,3.909302E-1,-1.20830126E-1,-1.1165611E-1,2.6801944E-1,-6.516879E-2,4.972815E-2,-1.5474261E-1,2.5735006E-1,-8.2821585E-2,1.4381951E-1,1.2208855E-1,-6.6990666E-2,-7.402822E-2,1.264257E-1,3.4545466E-1,-5.1788967E-2,-9.816052E-2,-3.8429216E-2,3.297793E-3,1.9759406E-1,-3.540846E-2,1.6659924E-1,1.6754748E-2,1.285673E-1,-4.261479E-2,8.439751E-3,8.1962015E-4,9.477947E-2,1.7554948E-2,1.14323996E-1,9.000166E-2,1.9281851E-1,-2.488341E-2,1.0153293E-1,4.8799984E-2,2.3620571E-1,1.7018078E-1,-1.1941636E-1,-1.5832013E-1,3.462356E-1,1.8069094E-1,6.614027E-2,1.3240333E-1,2.6203153E-1,-8.54105E-2,7.7638306E-2,1.5079446E-1,3.0637162E-2],"split_indices":[53,2037,186,53,1419,435,202,154,734,614,1226,180,568,1311,210,899,941,810,1456,1550,1311,462,462,1974,1125,1146,1974,435,707,625,1819,1394,540,0,641,1935,411,675,652,844,1491,1901,0,1655,20,84,263,53,429,1626,1687,278,960,694,2010,294,617,492,1686,59,466,1848,1241,0,0,0,0,0,0,0,0,0,0,0,0,0,0,0,0,0,0,0,0,0,0,0,0,0,0,0,0,0,0,0,0,0,0,0,0,0,0,0,0,0,0,0,0,0,0,0,0,0,0,0,0,0,0,0,0,0,0,0,0],"split_type":[0,0,0,0,0,0,0,0,0,0,0,0,0,0,0,0,0,0,0,0,0,0,0,0,0,0,0,0,0,0,0,0,0,0,0,0,0,0,0,0,0,0,0,0,0,0,0,0,0,0,0,0,0,0,0,0,0,0,0,0,0,0,0,0,0,0,0,0,0,0,0,0,0,0,0,0,0,0,0,0,0,0,0,0,0,0,0,0,0,0,0,0,0,0,0,0,0,0,0,0,0,0,0,0,0,0,0,0,0,0,0,0,0,0,0,0,0,0,0,0,0,0,0],"sum_hessian":[4.7757664E4,9.179828E3,3.8577836E4,5.4994653E3,3.6803623E3,2.9627129E4,8.950707E3,3.8575728E3,1.6418927E3,2.1607217E3,1.5196407E3,1.1626729E4,1.80004E4,3.4994434E3,5.4512637E3,3.8447546E3,1.2818158E1,1.576036E3,6.58567E1,1.6634451E3,4.972766E2,8.376815E2,6.819592E2,8.1770444E3,3.4496836E3,9.920728E3,8.0796724E3,2.96476E3,5.346834E2,3.9701565E3,1.481107E3,3.8374104E3,7.3440695E0,5.057462E0,7.760696E0,1.5541052E3,2.1930828E1,2.6660086E1,3.919661E1,8.0942554E2,8.540195E2,4.935114E2,3.7651963E0,2.2363E2,6.140515E2,6.3356354E2,4.83957E1,7.3316816E3,8.45363E2,1.6828319E3,1.7668517E3,7.028084E3,2.8926436E3,4.9793237E3,3.1003489E3,1.9273229E3,1.0374371E3,4.9469675E2,3.9986645E1,2.7289756E3,1.241181E3,5.66054E2,9.15053E2,3.828581E3,8.82949E0,6.1370935E0,1.206976E0,5.8817134E0,1.8789827E0,1.5080701E3,4.6035122E1,1.412155E1,7.809277E0,2.3174019E1,3.4860663E0,4.82291E0,3.43737E1,7.9612665E2,1.3298908E1,3.5781186E2,4.962076E2,4.8865018E2,4.8612413E0,1.7843361E2,4.5196404E1,5.27698E2,8.635352E1,5.7707904E2,5.648448E1,2.6180977E1,2.2214722E1,3.122517E3,4.2091646E3,6.6204486E2,1.8331807E2,1.6033695E3,7.946241E1,8.454776E2,9.21374E2,3.1789565E3,3.8491272E3,1.4760818E3,1.4165619E3,3.8313582E3,1.1479656E3,2.486189E3,6.1416E2,1.6384978E3,2.8882507E2,9.172384E2,1.2019866E2,4.6691727E2,2.7779476E1,3.6254433E1,3.7322106E0,1.0635493E3,1.6654261E3,6.018816E2,6.3929944E2,3.857758E2,1.8027823E2,4.5327252E2,4.6178046E2],"tree_param":{"num_deleted":"0","num_feature":"2048","num_nodes":"123","size_leaf_vector":"1"}},{"base_weights":[3.2139246E-3,-1.9646224E-1,1.6723897E-1,-3.054295E-1,-3.1947307E-2,2.6896683E-2,3.5737687E-1,-4.149565E-1,-1.9928041E-1,-7.191566E-2,3.064694E-1,-1.2792404E-1,1.1937622E-1,9.046722E-2,5.1521415E-1,-5.0311714E-1,-3.0438873E-1,-5.2732106E-2,-3.0971417E-1,-8.755195E-2,4.5101106E-1,1.4805618E-1,6.21576E-1,-2.5124156E-1,-2.3661684E-2,-4.689239E-2,1.9668208E-1,1.7569463E-1,-2.6184157E-1,6.277298E-1,3.3166376E-1,-5.310423E-1,-2.7291313E-1,-3.2605544E-1,7.662604E-2,-9.856046E-2,4.1273436E-1,-3.4879056E-1,-8.369605E-2,-1.007216E-1,3.369348E-1,1.5424135E-1,8.471319E-1,-4.7706753E-2,4.5667744E-1,7.2554094E-1,-2.3668765E-1,-1.3072446E-1,-3.7077907E-1,1.2861799E-1,-1.7738658E-1,-6.290419E-2,8.4152454E-1,3.1361467E-1,4.3693382E-2,5.572596E-2,4.0078408E-1,-3.0300793E-1,6.124471E-1,7.632619E-1,5.0202966E-1,1.5813485E-1,5.1274145E-1,-1.6057241E-1,1.405896E-1,-1.1021307E-1,1.4864846E-1,-1.0014789E-1,2.4907048E-1,-1.5622193E-1,1.1455704E-1,-5.4814335E-2,4.3591126E-3,5.5780048E-3,2.4756898E-1,-1.0862537E-1,5.984942E-2,-6.0182054E-2,7.983954E-2,3.571659E-2,-3.8433284E-2,5.286126E-2,3.5113242E-1,-7.0516154E-2,2.1300569E-1,2.954142E-1,-1.1210459E-1,3.0975936E-2,-1.2680343E-1,3.6528623E-1,7.530184E-2,-9.785751E-2,2.3948272E-1,-1.9596453E-1,2.2446097E-1,-4.5301657E-2,2.2951818E-1,-1.22962736E-1,2.9749012E-2,-2.5483975E-2,6.583908E-2,-7.416059E-2,4.9604475E-2,4.158523E-2,-3.957577E-2,4.2200276E-1,-2.776175E-2,1.2642476E-1,5.9139058E-2,7.353381E-3,3.0179542E-1,-1.3918125E-2,1.0563644E-1,-2.9734492E-2,1.4476477E-1,-1.0444918E-1,1.530509E-1,3.7115794E-1,-1.23349935E-1,2.5604716E-1,1.873621E-1,1.9822349E-1,1.0145364E-1,7.9773754E-2,-2.467403E-2,1.6823891E-1,-3.5220362E-2],"categories":[],"categories_nodes":[],"categories_segments":[],"categories_sizes":[],"default_left":[0,0,0,0,0,0,0,0,0,0,0,0,0,0,0,0,0,0,0,0,0,0,0,0,0,0,0,0,0,0,0,0,0,0,0,0,0,0,0,0,0,0,0,0,0,0,0,0,0,0,0,0,0,0,0,0,0,0,0,0,0,0,0,0,0,0,0,0,0,0,0,0,0,0,0,0,0,0,0,0,0,0,0,0,0,0,0,0,0,0,0,0,0,0,0,0,0,0,0,0,0,0,0,0,0,0,0,0,0,0,0,0,0,0,0,0,0,0,0,0,0,0,0,0,0,0,0],"id":10,"left_children":[1,3,5,7,9,11,13,15,17,19,21,23,25,27,29,31,33,35,37,39,41,43,45,47,49,51,53,55,57,59,61,63,65,67,69,71,73,75,77,79,81,83,85,87,89,91,93,95,97,99,101,103,105,107,109,111,113,115,117,119,121,123,125,-1,-1,-1,-1,-1,-1,-1,-1,-1,-1,-1,-1,-1,-1,-1,-1,-1,-1,-1,-1,-1,-1,-1,-1,-1,-1,-1,-1,-1,-1,-1,-1,-1,-1,-1,-1,-1,-1,-1,-1,-1,-1,-1,-1,-1,-1,-1,-1,-1,-1,-1,-1,-1,-1,-1,-1,-1,-1,-1,-1,-1,-1,-1,-1],"loss_changes":[1.5583291E3,3.8466144E2,6.970363E2,1.4998889E2,1.1568118E2,2.1521086E2,4.672771E2,6.1764404E1,1.0610196E2,6.257842E1,4.500361E1,7.226595E1,1.2096031E2,1.23855484E2,1.4374878E2,2.2564148E1,2.3308655E1,6.017396E1,3.2993988E1,4.1554886E1,2.5993248E1,3.642238E1,2.7111671E1,3.7049103E1,7.134942E1,4.254834E1,1.14900406E2,8.96507E1,2.9107754E1,7.322009E1,8.3224365E1,1.3471069E1,2.807143E1,2.4257843E1,2.8016953E1,2.4434034E1,4.109558E1,2.3306305E1,2.2648775E1,4.338331E1,2.9766365E1,2.7918844E1,1.631723E1,2.0962666E1,3.630632E1,2.0879776E1,1.4180331E1,2.34396E1,2.3783539E1,2.9727041E1,3.633272E1,4.084371E1,2.8085384E1,4.5633453E1,5.1363297E1,6.561812E1,4.7232864E1,2.838292E1,2.3829227E1,2.5463501E1,5.8143555E1,3.5133286E1,3.9338318E1,0E0,0E0,0E0,0E0,0E0,0E0,0E0,0E0,0E0,0E0,0E0,0E0,0E0,0E0,0E0,0E0,0E0,0E0,0E0,0E0,0E0,0E0,0E0,0E0,0E0,0E0,0E0,0E0,0E0,0E0,0E0,0E0,0E0,0E0,0E0,0E0,0E0,0E0,0E0,0E0,0E0,0E0,0E0,0E0,0E0,0E0,0E0,0E0,0E0,0E0,0E0,0E0,0E0,0E0,0E0,0E0,0E0,0E0,0E0,0E0,0E0,0E0,0E0,0E0],"parents":[2147483647,0,0,1,1,2,2,3,3,4,4,5,5,6,6,7,7,8,8,9,9,10,10,11,11,12,12,13,13,14,14,15,15,16,16,17,17,18,18,19,19,20,20,21,21,22,22,23,23,24,24,25,25,26,26,27,27,28,28,29,29,30,30,31,31,32,32,33,33,34,34,35,35,36,36,37,37,38,38,39,39,40,40,41,41,42,42,43,43,44,44,45,45,46,46,47,47,48,48,49,49,50,50,51,51,52,52,53,53,54,54,55,55,56,56,57,57,58,58,59,59,60,60,61,61,62,62],"right_children":[2,4,6,8,10,12,14,16,18,20,22,24,26,28,30,32,34,36,38,40,42,44,46,48,50,52,54,56,58,60,62,64,66,68,70,72,74,76,78,80,82,84,86,88,90,92,94,96,98,100,102,104,106,108,110,112,114,116,118,120,122,124,126,-1,-1,-1,-1,-1,-1,-1,-1,-1,-1,-1,-1,-1,-1,-1,-1,-1,-1,-1,-1,-1,-1,-1,-1,-1,-1,-1,-1,-1,-1,-1,-1,-1,-1,-1,-1,-1,-1,-1,-1,-1,-1,-1,-1,-1,-1,-1,-1,-1,-1,-1,-1,-1,-1,-1,-1,-1,-1,-1,-1,-1,-1,-1,-1],"split_conditions":[1.4577368E0,2.8893162E-2,1.3442895E0,2.927699E0,8.152096E-1,1.6998282E-2,5.1124387E0,3.5236648E-1,7.780416E-1,1.9036106E0,2.7898526E-1,3.5689224E-2,1.2674813E-1,1.8638133E-1,1.9008422E0,8.648304E-2,3.611345E-1,7.8588074E-1,5.6221414E-1,2.361498E0,1.4113576E0,5.255383E-1,2.4031076E0,1.453772E0,3.0728725E-1,4.3386513E-1,4.6267238E-1,7.078478E-1,6.7483926E-1,9.421234E-3,1.9102697E0,1.853875E0,5.0358725E-1,5.620041E-1,1.1339178E-1,2.4948882E-2,2.2761168E0,5.8833346E0,2.040934E0,1.8509137E-2,1.6400613E-1,1.3541377E-1,6.68805E-1,1.2817571E0,1.0088471E-2,9.3094865E-3,5.94249E-1,1.7227223E0,9.8151785E-1,6.516403E-3,1.4732614E0,5.596284E-2,1.953429E-1,7.3301936E-3,1.211902E0,3.773528E-1,1.2471517E0,2.375361E0,5.1732504E-1,5.955032E-1,4.4562276E-3,8.731587E-2,1.8709962E0,-1.6057241E-1,1.405896E-1,-1.1021307E-1,1.4864846E-1,-1.0014789E-1,2.4907048E-1,-1.5622193E-1,1.1455704E-1,-5.4814335E-2,4.3591126E-3,5.5780048E-3,2.4756898E-1,-1.0862537E-1,5.984942E-2,-6.0182054E-2,7.983954E-2,3.571659E-2,-3.8433284E-2,5.286126E-2,3.5113242E-1,-7.0516154E-2,2.1300569E-1,2.954142E-1,-1.1210459E-1,3.0975936E-2,-1.2680343E-1,3.6528623E-1,7.530184E-2,-9.785751E-2,2.3948272E-1,-1.9596453E-1,2.2446097E-1,-4.5301657E-2,2.2951818E-1,-1.22962736E-1,2.9749012E-2,-2.5483975E-2,6.583908E-2,-7.416059E-2,4.9604475E-2,4.158523E-2,-3.957577E-2,4.2200276E-1,-2.776175E-2,1.2642476E-1,5.9139058E-2,7.353381E-3,3.0179542E-1,-1.3918125E-2,1.0563644E-1,-2.9734492E-2,1.4476477E-1,-1.0444918E-1,1.530509E-1,3.7115794E-1,-1.23349935E-1,2.5604716E-1,1.873621E-1,1.9822349E-1,1.0145364E-1,7.9773754E-2,-2.467403E-2,1.6823891E-1,-3.5220362E-2],"split_indices":[207,2037,1052,53,1873,316,792,771,59,1084,1222,913,395,227,801,907,1737,1483,1061,1125,264,764,1310,694,1336,599,1085,1988,904,1578,1455,208,858,580,1678,907,734,459,888,170,1056,1047,1087,1227,1519,195,1725,1447,1535,1120,781,1485,2024,1140,1839,1650,731,180,62,1290,960,540,598,0,0,0,0,0,0,0,0,0,0,0,0,0,0,0,0,0,0,0,0,0,0,0,0,0,0,0,0,0,0,0,0,0,0,0,0,0,0,0,0,0,0,0,0,0,0,0,0,0,0,0,0,0,0,0,0,0,0,0,0,0,0,0,0],"split_type":[0,0,0,0,0,0,0,0,0,0,0,0,0,0,0,0,0,0,0,0,0,0,0,0,0,0,0,0,0,0,0,0,0,0,0,0,0,0,0,0,0,0,0,0,0,0,0,0,0,0,0,0,0,0,0,0,0,0,0,0,0,0,0,0,0,0,0,0,0,0,0,0,0,0,0,0,0,0,0,0,0,0,0,0,0,0,0,0,0,0,0,0,0,0,0,0,0,0,0,0,0,0,0,0,0,0,0,0,0,0,0,0,0,0,0,0,0,0,0,0,0,0,0,0,0,0,0],"sum_hessian":[4.7577816E4,2.1456955E4,2.6120861E4,1.2907053E4,8.549902E3,1.5028988E4,1.1091872E4,6.351018E3,6.5560347E3,7.647491E3,9.024114E2,5.6200444E3,9.408944E3,4.1223584E3,6.9695137E3,3.5315813E3,2.8194368E3,2.8179817E3,3.738053E3,7.426267E3,2.21224E2,6.014932E2,3.0091818E2,2.5740942E3,3.0459502E3,2.986343E3,6.422601E3,3.3197705E3,8.025881E2,4.31935E3,2.6501636E3,3.1483594E3,3.8322177E2,2.6678704E3,1.5156639E2,2.5661182E3,2.5186362E2,3.1865803E3,5.5147266E2,7.203541E3,2.2272617E2,1.2726656E2,9.3957436E1,3.6855734E2,2.3293585E2,2.6854312E2,3.2375076E1,1.2828375E3,1.2912568E3,1.53025E3,1.5157003E3,2.9343862E3,5.195678E1,3.6396714E3,2.7829297E3,2.1663774E3,1.1533931E3,7.671212E2,3.5466908E1,2.0759502E3,2.2434E3,1.3542466E3,1.2959171E3,3.1356528E3,1.2706645E1,3.4173294E2,4.1488834E1,2.6507673E3,1.7103157E1,5.1016388E1,1.0055E2,1.4709376E3,1.0951805E3,1.2933174E2,1.22531876E2,3.111478E3,7.510215E1,4.13657E2,1.3781564E2,7.978784E2,6.4056626E3,1.8773532E2,3.499085E1,7.5182175E1,5.208439E1,8.461497E1,9.342462E0,2.6328568E2,1.0527166E2,4.8515995E1,1.8441986E2,1.7144966E1,2.5139815E2,2.2989277E1,9.3858E0,1.2552494E3,2.7588093E1,1.1922E3,9.905688E1,4.566943E2,1.0735557E3,1.2594318E3,2.562686E2,7.4831714E2,2.186069E3,3.2055664E1,1.9901117E1,1.8889316E3,1.7507397E3,2.7295452E3,5.338471E1,1.6118695E3,5.5450793E2,1.6210385E2,9.9128925E2,7.2730554E2,3.9815655E1,2.1894997E1,1.3571912E1,1.2547021E3,8.21248E2,1.1380184E3,1.1053816E3,9.3494696E2,4.1929956E2,1.204195E3,9.172216E1],"tree_param":{"num_deleted":"0","num_feature":"2048","num_nodes":"127","size_leaf_vector":"1"}},{"base_weights":[-1.2751401E-2,-3.1841767E-1,3.174674E-1,-5.1696353E-2,-4.5590457E-1,1.3826963E-1,7.031625E-1,-1.11687556E-1,5.200968E-1,-4.7295165E-1,2.9613635E-1,3.3652756E-1,-1.23153135E-1,4.8876983E-1,8.2498723E-1,1.1058378E-2,-3.3266842E-1,7.482367E-1,-1.8026228E-1,-3.0357406E-1,-5.276077E-1,7.7658194E-1,-2.0672797E-1,6.317649E-1,1.7919077E-1,-1.6970003E-1,8.9327157E-1,7.3966193E-1,2.5957474E-1,5.860102E-1,8.893652E-1,1.2663202E-1,-1.788096E-1,4.93779E-2,-3.9486885E-1,4.549445E-1,9.921915E-1,-2.8143743E-1,1.2196935E0,1.0311059E-1,-3.4632346E-1,-5.3092885E-1,6.506809E-1,9.1775316E-1,-3.5342106E-1,-4.357444E-1,5.83835E-1,3.587925E-1,8.199561E-1,3.3764634E-1,-1.0819221E-2,-1.5688378E-2,-3.4649062E-1,1.0009392E0,-8.188824E-2,3.9161018E-1,8.7893695E-1,6.692591E-1,1.1599478E-1,6.3442177E-1,-3.318133E-1,8.9340687E-1,-1.9681104E-1,2.4984276E-2,2.31876E-1,1.5517321E-2,-8.7416515E-2,1.1349887E-1,-6.1883423E-2,-1.2623274E-1,1.0172623E-1,2.032703E-1,-5.235442E-2,3.049333E-1,-1.8920323E-1,-1.02528095E-1,4.944351E-1,4.6969798E-1,-1.3182092E-1,2.5943908E-1,-1.8190302E-2,-7.217942E-2,-1.3396694E-1,-5.9188314E-2,-1.6190147E-1,-1.6421705E-1,3.2379815E-1,-1.05260335E-1,3.050391E-1,-1.8126366E-1,2.5783715E-1,-1.5480885E-1,2.0682983E-1,3.740275E-1,-1.7318314E-1,1.2679996E-1,-4.0862925E-2,2.6038137E-1,1.2472865E-1,1.1947631E-1,-5.5239964E-2,4.3528486E-2,-5.093238E-2,3.5681807E-2,-4.557968E-2,-1.09455965E-1,1.9230032E-1,3.2036662E-1,4.956845E-2,3.739625E-1,-1.6834746E-1,1.4211169E-1,-1.712331E-1,2.7502894E-1,1.0243226E-1,2.1639968E-1,-1.9584808E-1,-4.8543613E-2,1.11928575E-1,2.0531197E-1,2.7871061E-2,-1.6625196E-1,2.2888592E-1,2.6892468E-1,-5.8577493E-2],"categories":[],"categories_nodes":[],"categories_segments":[],"categories_sizes":[],"default_left":[0,0,0,0,0,0,0,0,0,0,0,0,0,0,0,0,0,0,0,0,0,0,0,0,0,0,0,0,0,0,0,0,0,0,0,0,0,0,0,0,0,0,0,0,0,0,0,0,0,0,0,0,0,0,0,0,0,0,0,0,0,0,0,0,0,0,0,0,0,0,0,0,0,0,0,0,0,0,0,0,0,0,0,0,0,0,0,0,0,0,0,0,0,0,0,0,0,0,0,0,0,0,0,0,0,0,0,0,0,0,0,0,0,0,0,0,0,0,0,0,0,0,0,0,0],"id":11,"left_children":[1,3,5,7,9,11,13,15,17,19,21,23,25,27,29,31,33,35,37,39,41,43,45,47,49,51,53,55,57,59,61,63,65,67,69,71,73,75,77,79,81,83,85,87,89,91,93,95,97,99,101,103,105,107,109,111,113,115,117,119,121,123,-1,-1,-1,-1,-1,-1,-1,-1,-1,-1,-1,-1,-1,-1,-1,-1,-1,-1,-1,-1,-1,-1,-1,-1,-1,-1,-1,-1,-1,-1,-1,-1,-1,-1,-1,-1,-1,-1,-1,-1,-1,-1,-1,-1,-1,-1,-1,-1,-1,-1,-1,-1,-1,-1,-1,-1,-1,-1,-1,-1,-1,-1,-1],"loss_changes":[4.6970723E3,8.8615186E2,1.5459539E3,2.820541E2,2.045686E2,7.9169385E2,1.8492603E2,2.0183862E2,1.2488922E2,1.4419092E2,8.5701416E1,4.034046E2,3.1186035E2,1.47794E2,6.9068115E1,1.0501902E2,6.31651E1,4.1701355E1,2.7630663E1,6.621277E1,4.6473145E1,2.9242393E1,3.1718391E1,1.5482397E2,1.7066441E2,1.7155112E2,3.038974E1,5.918628E1,7.9124275E1,4.2993195E1,2.2830566E1,8.328437E1,4.701371E1,3.1441727E1,4.3596954E1,3.7864777E1,1.3266449E1,2.1570467E1,8.248632E0,4.5305798E1,3.639563E1,3.418091E1,1.7836035E1,2.063945E1,6.8625975E0,1.2580046E1,3.109517E1,3.9073914E1,3.428772E1,9.78168E1,6.392764E1,6.180149E1,5.342508E1,1.4372772E1,1.9562197E1,2.8142506E1,1.7503174E1,2.451271E1,7.135905E1,2.4685547E1,1.2326311E1,1.1811279E1,0E0,0E0,0E0,0E0,0E0,0E0,0E0,0E0,0E0,0E0,0E0,0E0,0E0,0E0,0E0,0E0,0E0,0E0,0E0,0E0,0E0,0E0,0E0,0E0,0E0,0E0,0E0,0E0,0E0,0E0,0E0,0E0,0E0,0E0,0E0,0E0,0E0,0E0,0E0,0E0,0E0,0E0,0E0,0E0,0E0,0E0,0E0,0E0,0E0,0E0,0E0,0E0,0E0,0E0,0E0,0E0,0E0,0E0,0E0,0E0,0E0,0E0,0E0],"parents":[2147483647,0,0,1,1,2,2,3,3,4,4,5,5,6,6,7,7,8,8,9,9,10,10,11,11,12,12,13,13,14,14,15,15,16,16,17,17,18,18,19,19,20,20,21,21,22,22,23,23,24,24,25,25,26,26,27,27,28,28,29,29,30,30,31,31,32,32,33,33,34,34,35,35,36,36,37,37,38,38,39,39,40,40,41,41,42,42,43,43,44,44,45,45,46,46,47,47,48,48,49,49,50,50,51,51,52,52,53,53,54,54,55,55,56,56,57,57,58,58,59,59,60,60,61,61],"right_children":[2,4,6,8,10,12,14,16,18,20,22,24,26,28,30,32,34,36,38,40,42,44,46,48,50,52,54,56,58,60,62,64,66,68,70,72,74,76,78,80,82,84,86,88,90,92,94,96,98,100,102,104,106,108,110,112,114,116,118,120,122,124,-1,-1,-1,-1,-1,-1,-1,-1,-1,-1,-1,-1,-1,-1,-1,-1,-1,-1,-1,-1,-1,-1,-1,-1,-1,-1,-1,-1,-1,-1,-1,-1,-1,-1,-1,-1,-1,-1,-1,-1,-1,-1,-1,-1,-1,-1,-1,-1,-1,-1,-1,-1,-1,-1,-1,-1,-1,-1,-1,-1,-1,-1,-1],"split_conditions":[2.5732613E-1,4.8628822E-1,2.0358253E0,2.5953178E0,2.2616205E0,4.4610305E-4,8.846329E-1,3.7990916E-1,4.577E0,3.111606E-1,1.727235E-1,3.8257062E-2,1.1585718E0,4.7312856E-1,4.2634735E-1,1.0081279E0,4.0768754E-2,5.97273E-1,1.8825293E0,7.3911436E-2,3.6850362E0,2.1792497E-1,4.969131E-1,4.3142166E0,1.5598006E-2,1.0925574E-1,3.692037E0,6.2720877E-1,1.3602084E-3,2.1344776E-1,3.7171993E0,5.6516117E-1,6.832865E-1,1.1780704E-1,1.2529552E0,2.9686013E-2,4.0497452E-1,9.307842E-2,6.5098004E-4,2.3316188E-1,1.8202772E-2,1.2661777E-2,9.8875177E-1,6.482625E-2,8.371333E-1,7.4542296E-1,1.1430205E0,5.603925E0,3.1036384E0,1.1860725E0,2.4531192E-1,6.722804E-2,2.142131E0,1.6063719E0,1.1202883E-2,4.3126947E-1,6.3654095E-1,1.1452231E0,1.4589986E0,5.6139153E-1,1.4672124E-1,3.8112776E0,-1.9681104E-1,2.4984276E-2,2.31876E-1,1.5517321E-2,-8.7416515E-2,1.1349887E-1,-6.1883423E-2,-1.2623274E-1,1.0172623E-1,2.032703E-1,-5.235442E-2,3.049333E-1,-1.8920323E-1,-1.02528095E-1,4.944351E-1,4.6969798E-1,-1.3182092E-1,2.5943908E-1,-1.8190302E-2,-7.217942E-2,-1.3396694E-1,-5.9188314E-2,-1.6190147E-1,-1.6421705E-1,3.2379815E-1,-1.05260335E-1,3.050391E-1,-1.8126366E-1,2.5783715E-1,-1.5480885E-1,2.0682983E-1,3.740275E-1,-1.7318314E-1,1.2679996E-1,-4.0862925E-2,2.6038137E-1,1.2472865E-1,1.1947631E-1,-5.5239964E-2,4.3528486E-2,-5.093238E-2,3.5681807E-2,-4.557968E-2,-1.09455965E-1,1.9230032E-1,3.2036662E-1,4.956845E-2,3.739625E-1,-1.6834746E-1,1.4211169E-1,-1.712331E-1,2.7502894E-1,1.0243226E-1,2.1639968E-1,-1.9584808E-1,-4.8543613E-2,1.11928575E-1,2.0531197E-1,2.7871061E-2,-1.6625196E-1,2.2888592E-1,2.6892468E-1,-5.8577493E-2],"split_indices":[115,1052,1187,726,1618,316,980,848,53,848,1290,1052,93,951,1047,731,1052,1618,2003,888,1047,519,1703,851,1290,111,734,1047,1052,1870,731,1983,1041,1310,1891,1165,190,1116,330,1605,1634,913,270,184,604,327,462,443,1930,1622,997,758,1393,1535,401,1960,49,1745,1393,238,1102,359,0,0,0,0,0,0,0,0,0,0,0,0,0,0,0,0,0,0,0,0,0,0,0,0,0,0,0,0,0,0,0,0,0,0,0,0,0,0,0,0,0,0,0,0,0,0,0,0,0,0,0,0,0,0,0,0,0,0,0,0,0,0,0],"split_type":[0,0,0,0,0,0,0,0,0,0,0,0,0,0,0,0,0,0,0,0,0,0,0,0,0,0,0,0,0,0,0,0,0,0,0,0,0,0,0,0,0,0,0,0,0,0,0,0,0,0,0,0,0,0,0,0,0,0,0,0,0,0,0,0,0,0,0,0,0,0,0,0,0,0,0,0,0,0,0,0,0,0,0,0,0,0,0,0,0,0,0,0,0,0,0,0,0,0,0,0,0,0,0,0,0,0,0,0,0,0,0,0,0,0,0,0,0,0,0,0,0,0,0,0,0],"sum_hessian":[4.6532805E4,2.4164773E4,2.2368031E4,8.219846E3,1.5944928E4,1.5273273E4,7.094757E3,7.4400566E3,7.797887E2,1.5591866E4,3.5306146E2,8.685825E3,6.587448E3,2.572525E3,4.522232E3,4.7837993E3,2.6562573E3,5.8813654E2,1.9165216E2,3.8054436E3,1.1786423E4,1.8027713E2,1.7278433E2,3.0185674E3,5.6672583E3,6.299784E3,2.8766388E2,1.227068E3,1.3454569E3,9.61852E2,3.56038E3,2.9739023E3,1.8098971E3,3.7194012E2,2.2843171E3,2.6836374E2,3.1977283E2,1.7948006E2,1.2172102E1,3.6183304E2,3.4436106E3,1.1753842E4,3.2580498E1,1.604233E2,1.9853844E1,1.3432176E2,3.846256E1,1.2330002E3,1.7855673E3,3.0897974E3,2.5774607E3,3.3673743E3,2.9324097E3,2.5903708E2,2.8626802E1,3.5177798E2,8.7529004E2,3.4821512E2,9.9724176E2,9.1395337E2,4.789866E1,3.5515137E3,8.866371E0,2.788019E3,1.8588333E2,5.9402295E2,1.2158743E3,1.6244408E2,2.0949605E2,2.2068474E3,7.746983E1,1.98192E2,7.017173E1,3.1543253E2,4.3402863E0,1.7483708E2,4.6429787E0,1.011845E1,2.053652E0,6.326486E1,2.985682E2,1.6775435E3,1.7660671E3,3.0074048E2,1.1453102E4,8.51209E0,2.4068407E1,1.1433435E1,1.4898985E2,1.6867855E1,2.9859898E0,1.2588112E2,8.440647E0,2.4436861E1,1.4025699E1,1.09221E3,1.4079027E2,1.5950696E3,1.9049765E2,2.76846E3,3.2133755E2,1.3012217E3,1.276239E3,1.6937968E3,1.6735776E3,2.8794956E3,5.2914227E1,2.3956734E2,1.9469751E1,7.16529E0,2.1461512E1,3.245964E2,2.7181566E1,8.170824E2,5.8207626E1,3.3545682E2,1.2758299E1,4.7949734E2,5.1774445E2,8.365257E2,7.742764E1,4.0222744E1,7.6759124E0,3.5419016E3,9.611905E0],"tree_param":{"num_deleted":"0","num_feature":"2048","num_nodes":"125","size_leaf_vector":"1"}},{"base_weights":[4.993632E-3,-5.8407832E-2,4.1536766E-1,-4.68646E-3,-3.2338113E-1,1.2678061E-1,5.267693E-1,-1.2736246E-1,8.7369025E-2,-2.3958749E-1,-4.8357898E-1,4.4161314E-1,-4.5978483E-2,3.801255E-1,6.1820483E-1,-5.9970766E-2,-2.684299E-1,1.5363123E-1,-7.690974E-2,-3.049256E-1,-7.1224235E-2,-3.025776E-1,-5.1481014E-1,4.389635E-2,6.498763E-1,6.1192952E-2,-3.5675412E-1,4.392874E-1,2.2674075E-4,1.9836897E-1,6.4926857E-1,-9.322175E-3,-2.4306025E-1,-3.8226697E-1,-2.2029687E-1,9.441066E-2,3.2778952E-1,6.826998E-2,-1.4723334E-1,-3.6015722E-1,-1.5981252E-1,2.868527E-1,-1.20525755E-1,-3.2166687E-1,6.2215054E-1,-5.336717E-1,-3.3175838E-1,-7.7155456E-2,7.053016E-1,7.244639E-1,-1.1916265E-1,-4.6193827E-2,3.405798E-1,4.090379E-1,-4.0519717E-1,2.5113097E-1,5.256674E-1,-3.534398E-1,2.1873267E-1,4.3969178E-1,-2.0391189E-1,6.996923E-1,4.0659136E-1,-2.4620911E-2,3.3514872E-2,-7.748526E-2,1.3401389E-1,-1.2214794E-1,-1.1658527E-2,-7.367964E-2,1.9780627E-2,1.8398954E-2,1.0747642E-1,1.259697E-1,3.538216E-2,5.16888E-2,-4.1401222E-2,-2.6033886E-2,-9.2408985E-2,-6.5053284E-2,-1.1857821E-1,-9.234839E-2,-9.254541E-3,5.471187E-2,3.6050832E-1,-5.948214E-2,3.633976E-2,-1.0066289E-1,2.8159848E-1,4.6544752E-1,-1.492857E-1,-1.6084903E-1,6.875092E-2,-1.1922031E-1,9.5594384E-2,-3.6347073E-2,3.947964E-1,-8.4545456E-2,3.5387588E-1,2.9143852E-1,1.5183198E-1,-1.1508991E-1,2.1507846E-1,1.4271812E-2,-1.1852745E-1,2.4383323E-1,6.086901E-2,3.2824007E-1,-1.4653939E-1,-1.2841356E-1,3.02449E-1,-2.172774E-2,1.2905769E-1,1.3235028E-1,2.350175E-1,-1.3812533E-1,1.0592537E-1,1.6877657E-1,-4.2639613E-2,2.2353569E-1,1.44844325E-2,1.10957704E-1,-1.3118723E-1,2.2015016E-1,9.377724E-2,1.6743883E-1,-6.3247164E-4],"categories":[],"categories_nodes":[],"categories_segments":[],"categories_sizes":[],